{"basic": {"layers": [{"weights": [[0.696496307849884, 0.8620101809501648], [-0.19800499081611633, -0.2988741993904114], [0.018407054245471954, -0.08345574140548706], [0.6838558912277222, -0.3280019462108612], [0.3875599503517151, 0.628699004650116], [0.8390915989875793, -0.052695855498313904], [-0.021049916744232178, 0.02426689863204956], [-0.08933917433023453, -0.308008074760437], [0.08551597595214844, -0.3343442976474762], [-0.02258329652249813, -0.18984569609165192], [0.054499685764312744, -0.34245577454566956], [0.024035073816776276, 0.41888466477394104], [0.805393636226654, -0.04029124602675438], [-0.5881271958351135, 0.3646869659423828], [-0.44283807277679443, 0.44807690382003784], [-0.4230039715766907, -0.38034629821777344], [0.0688861832022667, 0.6294113397598267], [0.6590316295623779, -0.287593811750412], [0.8088529706001282, -0.48055556416511536], [0.8026448488235474, 0.5440889596939087]], "bias": [-0.4488218426704407, 0.6612275838851929, 0.5306240320205688, -0.13790465891361237, 0.06661644577980042, 0.043485190719366074, -0.35092517733573914, 0.3890414834022522, -0.43687012791633606, 0.20633555948734283, -0.15360140800476074, 0.27897191047668457, -0.21308760344982147, -0.1403786689043045, -0.467635840177536, -0.617317795753479, 0.059631116688251495, 0.2737456262111664, 0.17648747563362122, -0.36372825503349304]}, {"weights": [[0.41523030400276184, -0.007340386509895325, 0.25039011240005493, -0.3240589499473572, 0.357602596282959, -0.04757877066731453, 0.12980690598487854, -0.10499333590269089, 0.06458136439323425, -0.1563372015953064, 0.02614744007587433, 0.28408774733543396, 0.21226492524147034, 0.2163442224264145, -0.09942087531089783, 0.06788930296897888, 0.31144386529922485, -0.1517980843782425, -0.18079498410224915, 0.30159640312194824], [0.21544067561626434, 0.032512448728084564, 0.032285504043102264, 0.11107634752988815, 0.256545752286911, 0.18476876616477966, 0.1589876115322113, -0.19014790654182434, 0.012878209352493286, -0.10990098863840103, -0.045996084809303284, 0.10139361768960953, 0.2785917818546295, -0.31414222717285156, 0.21240410208702087, -0.16389118134975433, 0.1756097376346588, 0.239866703748703, -0.0576259009540081, 0.20214301347732544], [0.2478218823671341, 0.13415925204753876, 0.01438410859555006, 0.3684064745903015, 0.003934171050786972, 0.4397714138031006, -0.09193749725818634, -0.12016626447439194, -0.19781824946403503, -0.1329299807548523, -0.18473133444786072, -0.11631157249212265, 0.3731216788291931, -0.4190308451652527, -0.03685056418180466, -0.12359433621168137, 0.011211886070668697, 0.3420757055282593, 0.393921434879303, 0.43124571442604065], [-0.06259497255086899, -0.11628642678260803, -0.25448814034461975, -0.12653380632400513, -0.08246611803770065, -0.23418685793876648, -0.03946030139923096, -0.11648792028427124, -0.1985521763563156, 0.1379292607307434, 0.00880269706249237, -0.04916536435484886, -0.053092777729034424, 0.06520210206508636, -0.01596684195101261, 0.1621864140033722, 0.03522668406367302, 0.04243786633014679, -0.026627257466316223, 0.0725325495004654], [0.1709330976009369, 0.06163707375526428, 0.036268919706344604, -0.09310297667980194, -0.07747310400009155, 0.2082953155040741, 0.1853921115398407, 0.21207034587860107, -0.020191892981529236, -0.11029024422168732, -0.1786961853504181, -0.21320682764053345, -0.18433639407157898, 0.19307935237884521, -0.004172787070274353, -0.023451343178749084, 0.007872477173805237, -0.10957501083612442, -0.028649747371673584, -0.15345945954322815], [0.15345561504364014, -0.21884334087371826, -0.06331375241279602, -0.06313193589448929, 0.06513186544179916, 0.1685807704925537, 0.18425676226615906, -0.27065134048461914, 0.14242136478424072, 0.0775182694196701, 0.1455121636390686, 0.014705748297274113, 0.15041373670101166, 0.07424936443567276, 0.11832098662853241, 0.07137152552604675, 0.32811829447746277, 0.05661316215991974, 0.13643109798431396, 0.2157638818025589], [-0.20846249163150787, 0.19131138920783997, 0.09450146555900574, 0.12929558753967285, 0.07616004347801208, -0.08684611320495605, 0.0648241639137268, 0.2904694974422455, -0.0702752023935318, 0.22373197972774506, 0.1596480906009674, 0.0811508372426033, -0.02690761350095272, -0.3360089957714081, -0.06200896203517914, -0.10988632589578629, -0.21796149015426636, 0.2559332251548767, 0.20223696529865265, -0.14115673303604126], [0.33410409092903137, 0.0685042291879654, -0.007944631390273571, 0.11789123713970184, 0.3314013183116913, -0.04882346838712692, 0.03540721535682678, -0.2621782422065735, 0.13130125403404236, -0.18440522253513336, -0.19742396473884583, 0.150130495429039, 0.12670627236366272, 0.014939257875084877, 0.008311450481414795, 0.1226443350315094, -0.008555606007575989, -0.05807951092720032, 0.12145834416151047, 0.2422143965959549], [0.013560822233557701, 0.1031600758433342, -0.08526208251714706, 0.40685930848121643, -0.0490763820707798, 0.37711301445961, 0.18629074096679688, -0.14361976087093353, -0.07311196625232697, -0.10071341693401337, 0.17588123679161072, -0.05759444087743759, 0.16539235413074493, -0.48691362142562866, 0.05898280814290047, -0.12181667238473892, 0.17426170408725739, 0.02465270459651947, 0.16957908868789673, 0.23053134977817535], [0.10474038124084473, -0.09366720914840698, 0.14873918890953064, -0.001055791974067688, -0.07941742241382599, -0.08828794956207275, -0.10483700782060623, -0.01905597746372223, 0.03504514694213867, -0.13217724859714508, -0.1487967073917389, 0.1326177716255188, -0.21733935177326202, -0.10026614367961884, -0.04152846336364746, 0.09051990509033203, 0.010338366031646729, -0.14763770997524261, 0.173477441072464, 0.02199392020702362], [-0.16001002490520477, -0.0742773488163948, 0.11104671657085419, -0.17387869954109192, 0.16838118433952332, 0.00038235675310716033, -0.07649026811122894, -0.22238750755786896, 0.04461181163787842, 0.02066880837082863, -0.10831140726804733, 0.050509121268987656, -0.07268758118152618, 0.05800342932343483, -0.18674862384796143, 0.16651588678359985, 0.1211484745144844, 0.032224033027887344, 0.0016060732305049896, 0.08528175950050354], [-0.044867143034935, 0.05203194171190262, 0.12331362813711166, 0.040496647357940674, 0.14356674253940582, 0.17099229991436005, 0.045639753341674805, 0.11620371043682098, 0.04883810877799988, 0.18453001976013184, 0.14095047116279602, -0.04646758362650871, 0.01410849392414093, -0.3154999315738678, 0.051636211574077606, 0.1407061219215393, 0.011424209922552109, 0.13865090906620026, 0.14047257602214813, -0.03394186124205589], [0.17427220940589905, -0.09274826943874359, -0.016536612063646317, 0.04407414421439171, 0.11885383725166321, 0.14951692521572113, 0.061552971601486206, -0.2187272310256958, -0.07818639278411865, -0.144847571849823, -0.03675612807273865, 0.15182961523532867, 0.1834205538034439, 0.21547134220600128, -0.08148157596588135, 0.20653706789016724, 0.06172587350010872, -0.15932117402553558, 0.09408286213874817, 0.010072576813399792], [-0.19334641098976135, 0.1437619924545288, -0.04077218845486641, -0.024707449600100517, 0.09800302982330322, -0.09830885380506516, -0.04958227276802063, 0.18366557359695435, -0.1859275996685028, -0.09975913166999817, 0.09851649403572083, 0.12631240487098694, -0.21641844511032104, 0.2965344786643982, 0.17519642412662506, -0.16600601375102997, 0.13664905726909637, -0.11628483235836029, -0.18447676301002502, -0.28088292479515076], [-0.008932020515203476, 0.10474318265914917, -0.04569149389863014, -0.10905620455741882, 0.13973285257816315, -0.21165305376052856, 0.13482630252838135, -0.0014460831880569458, -0.11426113545894623, 0.10502758622169495, -0.1452046036720276, -0.1391969472169876, 0.07598866522312164, -0.21921852231025696, -0.1559019237756729, -0.20366324484348297, 0.12031280249357224, 0.1422535479068756, -0.04961591958999634, 0.0678974986076355], [0.18871623277664185, -0.20597825944423676, -0.21198837459087372, 0.17593812942504883, 0.04978937655687332, -0.06228120997548103, -0.008630573749542236, 0.012598797678947449, 0.07701236009597778, 0.07518592476844788, -0.053480565547943115, -0.07325956970453262, -0.2009870409965515, -0.1060587614774704, 0.04495745897293091, -0.06763601303100586, -0.09210961312055588, 0.006912512704730034, -0.05934497341513634, -0.10227405279874802], [-0.0036186720244586468, -0.03644070029258728, -0.07956958562135696, -0.055593762546777725, 0.0049701570533216, 0.12593938410282135, 0.1530686616897583, -0.24648910760879517, 0.10404765605926514, -0.08721373230218887, 0.17315325140953064, 0.20609161257743835, 0.30462056398391724, -0.07887327671051025, -0.1347053200006485, -0.0055315494537353516, 0.24319738149642944, 0.278344988822937, 0.21944546699523926, 0.2930387854576111], [0.30941054224967957, 0.07316101342439651, -0.207013800740242, 0.33376237750053406, 0.30612102150917053, 0.11418198049068451, -0.11003967374563217, -0.1804305613040924, -0.20739343762397766, -0.23792621493339539, 0.14124923944473267, 0.08716361224651337, 0.32250335812568665, 0.14745336771011353, 0.024085750803351402, 0.05948680639266968, 0.19599270820617676, -0.1333567351102829, -0.07937106490135193, 0.3450283408164978], [0.056350111961364746, 0.0350516140460968, 0.007495328783988953, -0.19464325904846191, -0.023948773741722107, 0.12005621194839478, 0.09620720148086548, -0.050447672605514526, -0.10283669084310532, -0.0017373114824295044, 0.17581960558891296, -0.12983310222625732, -0.05955237150192261, 0.19348910450935364, 0.060868531465530396, 0.192715585231781, -0.2091897875070572, 0.06511291861534119, -0.16373756527900696, -0.03239947557449341], [-1.5619527403032407e-05, -0.04776207357645035, 0.006476713344454765, 0.2833252549171448, 0.2697376012802124, 0.40606674551963806, -0.04340203106403351, -0.1811450570821762, -0.21237072348594666, -0.07915903627872467, 0.1724405586719513, 0.08763767033815384, 0.40007898211479187, -0.23658788204193115, 0.0354047492146492, 0.06617188453674316, 0.19014839828014374, 0.2800843119621277, 0.27440446615219116, 0.01550506241619587]], "bias": [-0.04608743265271187, -0.056988053023815155, -0.0069357543252408504, 0.13048146665096283, -0.13753622770309448, 0.19203758239746094, 0.16494940221309662, 0.015622928738594055, 0.04606155306100845, -0.18861156702041626, -0.27285051345825195, 0.0082809217274189, 0.05405677109956741, -0.048316530883312225, -0.20224590599536896, 0.05044003203511238, 0.024235306307673454, 0.2175390124320984, -0.07899673283100128, -0.0353325717151165]}, {"weights": [[-0.1490950733423233, -0.004975749179720879, 0.16222888231277466, -0.1880314201116562, -0.12920856475830078, 0.04187788441777229, 0.3522588014602661, 0.10715114325284958, 0.015720104798674583, 0.006362900137901306, 0.12501245737075806, 0.25783413648605347, -0.19153699278831482, -0.04884352162480354, -0.023790672421455383, -0.13597655296325684, 0.26736027002334595, -0.08128708600997925, 0.13410186767578125, 0.20188583433628082], [-0.06616759300231934, 0.15355917811393738, 0.013942182064056396, -0.10166715830564499, -0.14588558673858643, -0.02583444118499756, 0.09094709157943726, -0.06579673290252686, 0.17863276600837708, 0.11872830986976624, -0.04863138496875763, -0.14225608110427856, 0.15018057823181152, -0.06468448042869568, 0.12446704506874084, 0.040825873613357544, -0.039369434118270874, -0.1197332963347435, 0.07219135761260986, -0.19606588780879974], [-0.21031086146831512, -0.221154123544693, -0.2336147427558899, -0.22324910759925842, -0.1637725830078125, -0.08562920987606049, 0.1557064950466156, -0.2743719220161438, 0.03863222897052765, 0.2192188799381256, 0.12312263995409012, 0.015189207158982754, 0.014850124716758728, 0.12558682262897491, 0.026738807559013367, 0.08529394865036011, -0.09870273619890213, -0.2113913893699646, 0.08904045820236206, 0.025634072721004486], [0.23762094974517822, 0.14839302003383636, -0.18799594044685364, 0.23920419812202454, -0.03270582854747772, 0.12396394461393356, -0.26291465759277344, 0.00862562470138073, -0.23503687977790833, -0.12622326612472534, 0.12207813560962677, -0.00624668737873435, -0.030705785378813744, -0.15290437638759613, -0.0970911756157875, 0.21461208164691925, 0.1768883466720581, 0.2307274341583252, -0.15815411508083344, 0.19861246645450592], [-0.07908642292022705, -0.10331471264362335, -0.20217356085777283, -0.2150368094444275, 0.04898267984390259, -0.2141571342945099, -0.10806193202733994, -0.043711379170417786, 0.10093232989311218, -0.2206992357969284, -0.21076467633247375, 0.14587557315826416, -0.041042327880859375, -0.05076518654823303, 0.1756223440170288, 0.17264291644096375, -0.1996278017759323, -0.19181697070598602, -0.0638623833656311, 0.12166506052017212], [-0.22771970927715302, 0.14529690146446228, -0.1850903034210205, 0.10605188459157944, 0.12844395637512207, 0.04992830380797386, -0.13588890433311462, -0.15829366445541382, 0.048267584294080734, 0.10129976272583008, -0.09221160411834717, -0.08871091157197952, 0.12933006882667542, 0.1746632158756256, -0.14137674868106842, -0.12763765454292297, 0.1845526099205017, -0.2321208119392395, 0.22334736585617065, 0.11746945977210999], [0.33903804421424866, 0.40029096603393555, 0.07546744495630264, -0.06160254031419754, -0.14753492176532745, 0.28601881861686707, 0.0750838965177536, 0.038247253745794296, 0.2614488899707794, 0.010895967483520508, -0.17457567155361176, 0.1378847360610962, -0.13212357461452484, 0.0041415877640247345, 0.10594657063484192, -0.008029327727854252, 0.06686057895421982, -0.09349454939365387, 0.056093573570251465, 0.2771713137626648], [0.11235947906970978, 0.1385844498872757, 0.08990313112735748, -0.017628759145736694, -0.018143385648727417, -0.1169915497303009, -0.2592538893222809, -0.0997323989868164, 0.10545660555362701, -0.04333418607711792, -0.002782328985631466, 0.03876940533518791, -0.10226408392190933, -0.08211526274681091, 0.036843132227659225, -0.141978919506073, -0.1006547063589096, 0.22754065692424774, 0.17954206466674805, 0.1818600445985794], [-0.2067393809556961, -0.038532719016075134, -0.09900090843439102, 0.053446799516677856, -0.041710466146469116, 0.07746239006519318, 0.122670978307724, -0.11471418291330338, -0.07358203083276749, 0.0960562527179718, 0.18893003463745117, 0.1007540300488472, -0.23228198289871216, -0.2074553370475769, 0.022080928087234497, 0.023641690611839294, 0.0484277568757534, 0.036275312304496765, 0.1383485496044159, -0.06007621809840202], [-0.20572210848331451, -0.05646523833274841, 0.10943756997585297, -0.030057527124881744, 0.11091822385787964, 0.016746437177062035, 0.03654191270470619, 0.04689555987715721, -0.2010520100593567, -0.18952567875385284, -0.20897161960601807, -0.33895623683929443, 0.022085612639784813, -0.19851818680763245, -0.1909416913986206, 0.030299965292215347, 0.16331343352794647, -0.2553126811981201, 0.054791808128356934, -0.14021359384059906], [0.2120656818151474, -0.025623701512813568, 0.08989475667476654, -0.13720548152923584, -0.16546069085597992, 0.03513719141483307, -0.33486661314964294, 0.42798155546188354, 0.12073929607868195, 0.08097228407859802, -0.10413140058517456, -0.16035446524620056, 0.09484359622001648, 0.059343669563531876, 0.13095328211784363, -0.10734914243221283, -0.036420974880456924, 0.2723599970340729, 0.16471078991889954, 0.24433130025863647], [-0.2304570972919464, 0.17448551952838898, 0.31104862689971924, -0.1790279597043991, 0.17508593201637268, 0.13338200747966766, 0.3457489609718323, -0.2058136761188507, 0.1997445970773697, 0.0032726675271987915, -0.18777155876159668, 0.21876564621925354, 0.24125319719314575, -0.1525152623653412, 0.0034338533878326416, 0.06519562005996704, 0.3529403507709503, 0.008714555762708187, 0.20393607020378113, 0.3418754041194916], [0.4222968518733978, 0.17518258094787598, -0.23533214628696442, 0.14375174045562744, 0.057584166526794434, 0.29423418641090393, -0.05911078304052353, 0.18550018966197968, -0.024699298664927483, -0.08161069452762604, 0.10607358813285828, 0.1156330406665802, 0.16708782315254211, 0.20814542472362518, -0.07772229611873627, -0.1427479237318039, 0.029652150347828865, 0.05940769985318184, -0.21307995915412903, -0.04851997643709183], [-0.018306925892829895, 0.1295166015625, 0.1283402442932129, 0.08624860644340515, -0.01935766637325287, -0.15281851589679718, 0.09530171751976013, -0.07472440600395203, -0.21749913692474365, -0.19632266461849213, -0.05781884491443634, -0.08736641705036163, -0.20057326555252075, 0.15103453397750854, -0.13376015424728394, 0.15304559469223022, 0.07574915885925293, -0.2198091745376587, 0.21952921152114868, -0.09267032146453857], [0.3618895411491394, 0.16867263615131378, 0.021529093384742737, 0.20272396504878998, -0.162887841463089, 0.2859521210193634, -0.29754871129989624, 0.23505818843841553, -0.04870884120464325, -0.062015414237976074, -0.17091140151023865, 0.1352999210357666, 0.18987348675727844, -0.03469227999448776, -0.031378332525491714, 0.13006696105003357, 0.2596931755542755, -0.0985034704208374, -0.09178556501865387, -0.08063153177499771], [0.07833431661128998, 0.31327855587005615, 0.2305067926645279, -0.15343496203422546, -0.13394567370414734, 0.14345869421958923, -0.327836275100708, 0.24530528485774994, 0.09071651101112366, -0.18741105496883392, 0.21812622249126434, -0.06124534085392952, -0.00020841615332756191, -0.20218977332115173, -0.10082997381687164, 0.12039639800786972, 0.2915474772453308, 0.12406456470489502, -0.18619391322135925, 0.09865330159664154], [0.0060515254735946655, -0.047363538295030594, 0.008722553960978985, 0.062254130840301514, 0.19898739457130432, -0.2500496208667755, 0.11525250226259232, -0.11443638056516647, 0.04370935633778572, 0.09573057293891907, 0.17689888179302216, -0.21651975810527802, 0.0931977927684784, 0.041896943002939224, -0.19626693427562714, 0.1368451565504074, 0.09933409839868546, -0.10291492938995361, -0.14017322659492493, -0.14358000457286835], [0.29621830582618713, 0.30598849058151245, 0.16823440790176392, 0.10673549771308899, -0.16760174930095673, 0.25319916009902954, -0.01843561790883541, 0.292681485414505, -0.12163106352090836, 0.08912834525108337, -0.18910947442054749, -0.008004318922758102, 0.046022262424230576, -0.1871025264263153, -0.037047602236270905, 0.122207410633564, 0.19752644002437592, 0.24389831721782684, 0.21171167492866516, -0.1281604766845703], [0.08296588063240051, -0.012427602894604206, 0.142954021692276, 0.04868525266647339, 0.09761658310890198, 0.13910219073295593, -0.1430693119764328, -0.039861973375082016, 0.17904578149318695, 0.028905928134918213, -0.09562050551176071, 0.10949289798736572, 0.24642015993595123, -0.10103287547826767, 0.21843808889389038, 0.21703273057937622, -0.06792528927326202, 0.08989209681749344, 0.20336538553237915, 0.26851344108581543], [0.09373103082180023, 0.023504797369241714, -0.29821979999542236, 0.10779678076505661, 0.1360326111316681, -0.15253204107284546, 0.03903691843152046, 0.029273340478539467, 0.14775077998638153, -0.05483254790306091, -0.0975232794880867, -0.09989868849515915, 0.17239342629909515, -0.1734098494052887, 0.1564917266368866, 0.016713904216885567, -0.21998398005962372, -0.021413030102849007, -0.07282467186450958, -0.08334258943796158]], "bias": [0.010455199517309666, -0.16369576752185822, 0.17143872380256653, 0.20606723427772522, -0.02760826051235199, -0.059681497514247894, 0.024831505492329597, 0.12444495409727097, -0.07370702922344208, 0.08562996983528137, 0.16788144409656525, -0.12265103310346603, 0.04510868340730667, -0.1822725534439087, 0.13707804679870605, 0.18217071890830994, -0.05236314982175827, -0.034146007150411606, 0.017778679728507996, 0.1703755110502243]}, {"weights": [[0.2537377178668976, -0.1175924688577652, 0.2599982023239136, -0.09906278550624847, 0.005106702446937561, 0.17363765835762024, 0.2977667450904846, -0.1012330874800682, -0.09345874935388565, -0.05675245448946953, -0.06324073672294617, 0.17239327728748322, 0.12952569127082825, -0.005126461386680603, 0.08258746564388275, 0.16075646877288818, -0.04292084276676178, -0.08731728047132492, 0.18353277444839478, -0.34118181467056274], [0.20571167767047882, 0.07052841782569885, 0.05132383108139038, -0.017021017149090767, -0.1899379938840866, 0.025029540061950684, 0.009339351207017899, 0.1057296022772789, -0.05473368614912033, -0.04127010330557823, -0.012215190567076206, -0.06389479339122772, -0.21838074922561646, -0.10386960953474045, -0.25247281789779663, 0.05621037632226944, 0.1802738457918167, -0.22696176171302795, -0.14990229904651642, 0.15860587358474731], [-0.18591876327991486, -0.05337105691432953, -0.13757546246051788, -0.08022170513868332, -0.14482223987579346, -0.08644507825374603, 0.175540953874588, -0.06265302002429962, 0.0572643056511879, -0.12251222878694534, 0.09986989200115204, -0.1466696709394455, 0.28561511635780334, -0.03047807514667511, 0.034345950931310654, -0.020333731546998024, -0.09379158914089203, -0.038517557084560394, 0.24912431836128235, -0.06533533334732056], [0.41766461730003357, 0.12120431661605835, 0.008396810851991177, -0.06557352095842361, 0.20534676313400269, -0.05697700008749962, -0.05991595238447189, -0.06444011628627777, -0.16658826172351837, 0.09555749595165253, 0.02272489294409752, 0.287130743265152, -0.09697660803794861, 0.06501692533493042, -0.1178843080997467, -0.04950413852930069, 0.11713732033967972, -0.0320788249373436, -0.06019408255815506, -0.13672512769699097], [-0.2331123948097229, -0.20334769785404205, 0.36770471930503845, 0.16016915440559387, 0.05039379000663757, 0.016044437885284424, -0.008124847896397114, -0.09935298562049866, 0.02939634397625923, 0.00900112371891737, 0.12156330049037933, 0.04562831297516823, 0.31273433566093445, -0.135857492685318, 0.16705892980098724, 0.09464848786592484, 0.04904896020889282, 0.2885793149471283, 0.04361607879400253, -0.09163615107536316], [-0.21569441258907318, 0.16634216904640198, 0.05397426337003708, -0.03956456109881401, 0.04962348937988281, 0.10487890988588333, -0.09603329747915268, -0.10628774762153625, -0.022875873371958733, -0.13253538310527802, 0.2698436975479126, 0.14907237887382507, -0.16473159193992615, 0.1284388303756714, 0.08126295357942581, 0.14721693098545074, 0.04300449788570404, 0.10459764301776886, 0.12335661053657532, -0.16250944137573242], [0.14932119846343994, 0.0649244487285614, 0.29349106550216675, -0.10644473880529404, -0.14761903882026672, 0.07847851514816284, 0.2893778681755066, 0.15015153586864471, -0.021933013573288918, 0.056952089071273804, 0.15549524128437042, 0.31000834703445435, -0.20554649829864502, 0.06756073236465454, -0.13313451409339905, 0.24219216406345367, 0.22071751952171326, -0.19980566203594208, 0.17631615698337555, -0.1382598727941513], [-0.21455980837345123, 0.08469697833061218, -0.08541949838399887, 0.28876644372940063, 0.06464630365371704, -0.09508330374956131, 0.0038643856532871723, 0.09707172960042953, 0.08902575820684433, 0.1629764586687088, 0.01643512398004532, -0.013213299214839935, -0.11679504811763763, 0.1684659719467163, 0.27997276186943054, 0.2816309332847595, 0.16591405868530273, 0.23752862215042114, 0.1818436086177826, -0.12216322124004364], [-0.1304391622543335, -0.20138077437877655, -0.024543555453419685, -0.021297087892889977, -0.18476209044456482, 0.20525065064430237, 0.17455320060253143, 0.06472049653530121, 0.0213211327791214, 0.08556923270225525, -0.06709250062704086, -0.2271542251110077, -0.024884991347789764, -0.0210239440202713, 0.030840858817100525, -0.19334623217582703, -0.02860565483570099, 0.06010815128684044, 0.13426102697849274, 0.13194432854652405], [0.23920142650604248, -0.05835461616516113, -0.09843534231185913, -0.07655272632837296, -0.004873543977737427, -0.03756309300661087, 0.2631170153617859, 0.1670222282409668, 0.15875612199306488, 0.10698475688695908, 0.12784619629383087, 0.3870214819908142, -0.215471550822258, 0.10105752944946289, 0.21146366000175476, 0.21114152669906616, 0.12657979130744934, 0.1852615922689438, -0.010575626976788044, -0.03763992711901665], [-0.21917323768138885, -0.13023421168327332, 0.19837257266044617, 0.20982769131660461, 0.08324536681175232, -0.027576491236686707, 0.056822240352630615, -0.04112491011619568, 0.16091224551200867, 0.08536553382873535, -0.15189260244369507, -0.17330807447433472, 0.09263983368873596, -0.18751226365566254, 0.14162489771842957, -0.15350699424743652, 0.1575675904750824, -0.03986789286136627, -0.17757192254066467, 0.17166224122047424], [-0.13420364260673523, 0.02977973222732544, 0.16356265544891357, 0.09117590636014938, 0.08929994702339172, 0.08480124920606613, -0.12789113819599152, -0.04085564985871315, -0.16343683004379272, -0.04168879985809326, 0.12499666959047318, 0.049696631729602814, -0.009627832099795341, 0.04076582193374634, 0.1192857027053833, -0.19359895586967468, -0.2055923193693161, 0.09023275226354599, -0.07570482045412064, 0.12048205733299255], [-0.06055653840303421, 0.06670451164245605, 0.11611302196979523, 0.1036415845155716, 0.17354393005371094, -0.17313608527183533, -0.07772353291511536, 0.27401992678642273, 0.09062656760215759, -0.05361364409327507, -0.1241912767291069, -0.12937289476394653, -0.01654632017016411, -0.18314899504184723, -0.05540364980697632, 0.2779937982559204, 0.22407108545303345, 0.2574799954891205, 0.25145649909973145, 0.032912641763687134], [0.2941216826438904, -0.03560434281826019, 0.06928709894418716, 0.18685662746429443, 0.025298982858657837, -0.20448432862758636, -0.1499958038330078, -0.054819196462631226, -0.13734929263591766, -0.04543297737836838, -0.2030852884054184, 0.07319136708974838, -0.15031404793262482, -0.03518255054950714, -0.17611342668533325, -0.2471030056476593, -0.23397164046764374, -0.22346322238445282, -0.13104508817195892, 0.2248113602399826], [-0.13982373476028442, 0.1460340917110443, 0.039142582565546036, 0.12534381449222565, 0.0889723002910614, 0.07686282694339752, 0.15347255766391754, 0.26216766238212585, 0.1448379009962082, -0.13641546666622162, 0.05206688866019249, 0.030551301315426826, 0.22670409083366394, -0.06539134681224823, 0.304840087890625, 0.0746443122625351, 0.21127942204475403, 0.15904122591018677, -0.03180226311087608, -0.10244981199502945], [0.14301571249961853, 0.11327102780342102, -0.20409433543682098, 0.1216876208782196, -0.021123364567756653, 0.10392636060714722, -0.22544240951538086, -0.07297111302614212, 0.13404563069343567, -0.029492199420928955, 0.0991588830947876, 0.18175920844078064, -0.22011002898216248, -0.016314595937728882, -0.058677978813648224, -0.18504288792610168, 0.1672048270702362, -0.12481508404016495, 0.04649643227458, -0.03683963418006897], [0.18806982040405273, 0.06715956330299377, 0.10988166183233261, 0.06908304989337921, 0.0742959976196289, 0.12717664241790771, 0.15980404615402222, -0.22380687296390533, -0.15257734060287476, -0.14034219086170197, 0.10862890630960464, 0.22604984045028687, -0.15147145092487335, -0.08157750964164734, 0.1421000063419342, 0.13314750790596008, 0.07120048999786377, 0.03275575861334801, 0.18280166387557983, 0.03483209386467934], [-0.27699723839759827, 0.008941590785980225, -0.04531250521540642, 0.29424214363098145, -0.12932591140270233, -0.1797335296869278, 0.2622390389442444, -0.020259033888578415, -0.004670639056712389, 0.14375825226306915, 0.3133030831813812, -0.34212160110473633, 0.2577550411224365, -0.128133624792099, 0.19362469017505646, 0.038509268313646317, -0.1718490719795227, 0.11764954775571823, -0.026423733681440353, 0.014609345234930515], [-0.01727733016014099, -0.04746517539024353, -0.1292194128036499, -0.018578842282295227, 0.12291306257247925, -0.1478586345911026, -0.12002819031476974, 0.18694061040878296, -0.1510215848684311, 0.19045013189315796, -0.06201953440904617, -0.12431441992521286, 0.05889404937624931, 0.16332027316093445, -0.2340971976518631, 0.09639175236225128, -0.1775398552417755, 0.06307506561279297, 0.09659649431705475, 0.02732996456325054], [0.03498540446162224, -0.024025514721870422, -0.13015636801719666, 0.03653132915496826, 0.21759137511253357, 0.2219734787940979, 0.1250736117362976, 0.06750768423080444, 0.03663136810064316, 0.21707196533679962, 0.20692390203475952, 0.06538037955760956, 0.03321278840303421, 0.015374064445495605, -0.08748134970664978, 0.23515766859054565, 0.22521014511585236, 0.21502335369586945, 0.1741529256105423, 0.01646491326391697]], "bias": [-0.0664542019367218, 0.09017382562160492, 0.20944224298000336, 0.08485043793916702, -0.01808748207986355, 0.18461129069328308, -0.04358380660414696, 0.11491052806377411, -0.1461271196603775, 0.011703603900969028, -0.09974336624145508, -0.1319790929555893, 0.10721375048160553, 0.19660580158233643, -0.012835772708058357, -0.09515368938446045, -0.16774170100688934, 0.16635362803936005, -0.04364651441574097, 0.17918643355369568]}, {"weights": [[-0.14830952882766724, 0.1490422636270523, 0.18999744951725006, -0.09633586555719376, 0.011889129877090454, 0.11875230073928833, -0.13159726560115814, 0.18693585693836212, 0.0560327023267746, 0.18412552773952484, 0.1693170964717865, -0.11333917081356049, -0.06531184911727905, -0.1786808967590332, 0.2788521647453308, 0.06948549300432205, -0.05272043123841286, 0.19165195524692535, 0.21387261152267456, 0.23777179419994354], [-0.019755199551582336, -0.11344055831432343, -0.08007627725601196, 0.07747107744216919, 0.007035046815872192, -0.07216295599937439, -0.03661298751831055, -0.03848898410797119, 0.11491632461547852, -0.21065302193164825, -0.16345234215259552, -0.2177172601222992, -0.10270500928163528, 0.09875932335853577, -0.13268989324569702, 0.08139041066169739, 0.013445720076560974, 0.11209776997566223, -0.13703089952468872, -0.22327034175395966], [-0.2087523490190506, -0.09321103990077972, 0.16745029389858246, -0.09672021865844727, 0.15854255855083466, 0.03622448071837425, -0.18818216025829315, -0.039780646562576294, -0.1603226214647293, 0.1903427243232727, -0.0973619669675827, -0.01732761412858963, -0.06022565811872482, -0.11036606132984161, 0.12464211881160736, 0.0071447608061134815, -0.15254990756511688, 0.07822369039058685, -0.06476037204265594, 0.2566797435283661], [-0.12192001938819885, -0.0595579519867897, 0.037257131189107895, -0.2078501135110855, 0.04143521189689636, -0.22691649198532104, 0.05393064394593239, -0.09850497543811798, 0.00906302034854889, 0.011609314009547234, -0.02932843565940857, -0.005233928561210632, 0.16761383414268494, 0.08381501585245132, -0.0718139261007309, 0.015596330165863037, -0.12438029050827026, -0.20871980488300323, -0.08813530951738358, -0.1674804836511612], [0.09711118787527084, 0.3510671854019165, 0.05944884940981865, 0.1596042513847351, -0.18610838055610657, 0.07041846960783005, 0.2754051685333252, -0.10980149358510971, -0.05794166028499603, 0.29069969058036804, -0.10382843017578125, 0.19247843325138092, 0.17241008579730988, 0.37921878695487976, 0.14924213290214539, -0.038974203169345856, 0.27446556091308594, -0.20731693506240845, -0.17790530622005463, 0.2344963550567627], [-0.1125514879822731, -0.06441381573677063, 0.01310056820511818, -0.14208364486694336, 0.07585067301988602, -0.05740467831492424, 0.12162334471940994, 0.2459634244441986, -0.14769338071346283, 0.24152012169361115, -0.1137135922908783, 0.04771120473742485, 0.18128418922424316, -0.2099805325269699, -0.04999338835477829, -0.1036522164940834, -0.1040627658367157, 0.04085440933704376, 0.035174570977687836, 0.014701806008815765], [0.2095717042684555, -0.057953011244535446, -0.09660138934850693, 0.03684195131063461, 0.04041741415858269, 0.22428005933761597, 0.37806689739227295, -0.14727112650871277, 0.017248205840587616, 0.24989306926727295, 0.052491337060928345, -0.051716212183237076, -0.14847923815250397, 0.26454225182533264, -0.1558794379234314, -0.054496899247169495, 0.33065131306648254, -0.011264837346971035, 0.06010059267282486, -0.010391110554337502], [-0.07756522297859192, 0.1021365076303482, -0.05627911537885666, -0.2023666352033615, 0.32587116956710815, 0.1336197555065155, -0.012265373952686787, -0.09640708565711975, -0.10286804288625717, 0.1504131406545639, 0.020797207951545715, -0.007357607129961252, 0.09070095419883728, -0.2788006067276001, 0.23474392294883728, 0.04313373565673828, -0.08955340087413788, 0.1287648230791092, -0.07203525304794312, 0.10013199597597122], [-0.20932741463184357, 0.3993079960346222, 0.03404506295919418, 0.3211035430431366, -0.004302197601646185, 0.258593887090683, 0.03394243121147156, -0.3131825923919678, 0.19423732161521912, -0.2812572419643402, 0.22076377272605896, -0.1738114058971405, -0.11364859342575073, 0.4527002274990082, -0.10483649373054504, 0.16765692830085754, -0.1221873089671135, 0.13063733279705048, -0.001661926507949829, 0.052559856325387955], [-0.07688421756029129, 0.15039284527301788, 0.06905707716941833, -0.04533751308917999, 0.0551677830517292, 0.07518576085567474, 0.25678199529647827, 0.2409040480852127, 0.10568979382514954, 0.13545219600200653, -0.09120345115661621, -0.125590980052948, 0.046185750514268875, 0.10656516253948212, 0.27405065298080444, 0.13437633216381073, 0.16746428608894348, -0.14866769313812256, -0.050024840980768204, -0.08512529730796814], [0.16892647743225098, -0.9863815307617188, -0.11030368506908417, 0.2358967363834381, -0.0486922562122345, 0.04257674887776375, 0.11245027184486389, 0.04122490435838699, 0.035407401621341705, -0.01784018613398075, 0.11976316571235657, -0.21142007410526276, 0.1240740567445755, -0.7244651913642883, 0.11399570107460022, 0.1387210190296173, 0.152327761054039, -0.23083747923374176, -0.011778518557548523, 0.020973192527890205], [0.01102188415825367, 0.051762547343969345, 0.290534108877182, 0.234365314245224, 0.10535580664873123, -0.0031653023324906826, -0.22907474637031555, 0.12643468379974365, -0.15681278705596924, -0.13638027012348175, 0.16442042589187622, 0.22753769159317017, 0.09305652230978012, 0.047027457505464554, 0.12708066403865814, 0.1640879362821579, 0.018926845863461494, 0.20915862917900085, -0.14281581342220306, 0.082364022731781], [0.19742456078529358, -0.12610214948654175, 0.12448864430189133, -0.1882477104663849, -0.030554255470633507, 0.21774986386299133, 0.33625084161758423, 0.22427092492580414, -0.07589598000049591, 0.036072589457035065, -0.052681922912597656, 0.09758645296096802, 0.02233639545738697, -0.19774702191352844, -0.1351063847541809, -0.1412234902381897, -0.037732187658548355, -0.22664980590343475, 0.059286247938871384, 0.17142651975154877], [0.13106228411197662, -0.17347176373004913, 0.25431933999061584, -0.10145904123783112, 0.3893747925758362, 0.18402345478534698, -0.1803554743528366, 0.27931275963783264, -0.10820239037275314, 0.006507881451398134, 0.1361474096775055, -0.12175329774618149, 0.26402977108955383, 0.1310429722070694, 0.1740524023771286, 0.024646451696753502, 0.2848185896873474, 0.27120113372802734, -0.06072613596916199, 0.0498928502202034], [0.03795718774199486, 0.10697606950998306, 0.08845364302396774, -0.11558423191308975, 0.36253219842910767, 0.2514703869819641, -0.06670012325048447, 0.1782364696264267, -0.12661728262901306, -0.15827606618404388, -0.17347286641597748, -0.15801000595092773, 0.16566912829875946, 0.12309550493955612, 0.25432613492012024, -0.07759182900190353, -0.00374464294873178, 0.26847878098487854, 0.10349337756633759, -0.0837838351726532], [-0.1755335032939911, 0.17857438325881958, -0.17649731040000916, -0.031792640686035156, -0.13838112354278564, 0.09047860652208328, 0.0867597833275795, 0.01226857490837574, 0.08156979829072952, 0.17276319861412048, 0.013361647725105286, -0.05316425859928131, 0.14394909143447876, 0.007174760103225708, -0.11152693629264832, -0.024696946144104004, -0.22062407433986664, 0.174422949552536, 0.16802650690078735, -0.10229093581438065], [0.0339210145175457, 0.058753371238708496, 0.05525388941168785, 0.2360057681798935, 0.021718379110097885, 0.018812110647559166, 0.2944365441799164, 0.06905876845121384, -0.026135282590985298, 0.26084715127944946, 0.1808633804321289, -0.17534220218658447, 0.21515746414661407, 0.15888874232769012, 0.07854622602462769, 0.13307058811187744, 0.12404616177082062, -0.2051105946302414, 0.05525878071784973, 0.006933227647095919], [-0.17610248923301697, -0.06703604757785797, 0.18868005275726318, 0.14299190044403076, 0.14224565029144287, -0.2026648223400116, -0.03964300453662872, -0.10093438625335693, -0.09470941126346588, 0.06310957670211792, -0.17973396182060242, 0.06891074776649475, -0.20921391248703003, -0.1770925223827362, -0.12492886930704117, -0.21370700001716614, 0.0810839831829071, 0.07206147909164429, -0.03624953329563141, -0.16342665255069733], [0.028676003217697144, -0.2234434187412262, 0.059414710849523544, 0.03359336405992508, -0.036849960684776306, -0.05078764259815216, -0.07801885902881622, -0.04542294144630432, 0.1420922577381134, -0.06124291196465492, 0.013857021927833557, -0.21108920872211456, 0.005733270198106766, 0.2001383751630783, -0.0943092405796051, 0.06876373291015625, 0.21499043703079224, 0.009863417595624924, -0.09666009247303009, -0.17510081827640533], [0.2242337316274643, -0.14618146419525146, -0.14972150325775146, 0.022946640849113464, -0.0902593731880188, -0.2243618220090866, 0.011911215260624886, 0.031632643193006516, -0.18744634091854095, 0.14070598781108856, 0.1429029107093811, -0.06504763662815094, -0.23093636333942413, -0.15947072207927704, 0.11226532608270645, 0.17322938144207, 0.23485161364078522, -0.08149102330207825, 0.19352906942367554, 0.15109509229660034]], "bias": [0.031009254977107048, 0.004966124892234802, 0.14046554267406464, 0.09375909715890884, -0.13524210453033447, 0.2189008593559265, 0.06983722001314163, -0.12828074395656586, 0.175831601023674, -0.03618849813938141, -0.2322058379650116, 0.12988033890724182, -0.03482947126030922, 0.24749651551246643, 0.11343281716108322, -0.23182731866836548, -0.1108289361000061, -0.202231764793396, -0.009802496060729027, 0.07787195593118668]}, {"weights": [[0.2204226702451706, 0.14369061589241028, -0.18194039165973663, -0.008824706077575684, 0.03249502182006836, 0.05932715907692909, 0.24073413014411926, 0.01816204935312271, 0.0551871731877327, 0.01045153383165598, -0.05754568427801132, -0.1853092461824417, 0.12425451725721359, -0.048805199563503265, -0.11374331265687943, 0.06954792141914368, -0.0871020182967186, -0.1911315619945526, 0.06831741333007812, 0.12473713606595993], [0.05444534122943878, 0.17035061120986938, 0.16637162864208221, -0.19573281705379486, -0.2648012936115265, 0.07800941169261932, -0.24757353961467743, 0.15819069743156433, -0.2075701355934143, -0.21326944231987, 0.037931427359580994, 0.070342518389225, -0.047664444893598557, 0.08055001497268677, -0.00018240090867038816, -0.07434709370136261, 0.20252671837806702, 0.07782667875289917, -0.2064647376537323, -0.20675301551818848], [-0.20335252583026886, 0.19030112028121948, -0.10173691809177399, -0.004870235919952393, 0.08388271927833557, -0.10203706473112106, -0.17790314555168152, 0.07546678185462952, 0.22329863905906677, -0.17847684025764465, 0.11529809236526489, -0.10282903909683228, -0.10217359662055969, 0.02258877456188202, -0.08780328929424286, -0.20268121361732483, -0.17165245115756989, 0.08694198727607727, -0.09012670814990997, 0.13241475820541382], [0.00903267227113247, 0.20534974336624146, -0.2562434673309326, 0.18219363689422607, 0.1305379420518875, -0.25287926197052, -0.10806170105934143, -0.27703601121902466, 0.040710147470235825, -0.2006026953458786, -0.16274696588516235, -0.07524576783180237, -0.06822292506694794, 0.00906955823302269, -0.20981842279434204, -0.14744932949543, -0.06509457528591156, -0.22238735854625702, 0.04086706042289734, -0.04696426913142204], [-0.038930490612983704, 0.11043703556060791, -0.0630408227443695, 0.0927322506904602, -0.10100222378969193, -0.009541645646095276, -0.03418126702308655, 0.11709028482437134, 0.02714693546295166, -0.1511635184288025, -0.05499917268753052, 0.17416897416114807, -0.13322685658931732, -0.009411409497261047, -0.17916296422481537, -0.1685766726732254, 0.17903786897659302, -0.02286967635154724, -0.13612496852874756, -0.10712070763111115], [0.22573541104793549, -0.006955012679100037, 0.1302805095911026, -0.22115108370780945, -0.08967532217502594, 0.23249734938144684, -0.17128156125545502, 0.08604507893323898, 0.004466421436518431, 0.10894493013620377, 0.10159922391176224, 0.29684701561927795, -0.1420346200466156, 0.2293354719877243, 0.08948162943124771, -0.18564769625663757, -0.1275004744529724, -0.1990812122821808, 0.10428137332201004, 0.09605739265680313], [0.17791740596294403, 0.21001946926116943, 0.19494503736495972, 0.16343346238136292, -0.2990700304508209, 0.18729399144649506, -0.022566363215446472, 0.10260996222496033, -0.20001566410064697, 0.004834465216845274, -0.0835525244474411, -0.08378979563713074, 0.12887121737003326, 0.25922492146492004, 0.25538352131843567, -0.12137595564126968, 0.014267823658883572, -0.030087947845458984, 0.14061971008777618, -0.09105830639600754], [-0.006999090313911438, 0.04559239745140076, 0.12269696593284607, 0.07570615410804749, 0.08723080158233643, 0.02182742953300476, -0.08175483345985413, -0.11916855722665787, -0.14054904878139496, -0.19060716032981873, 0.07677718997001648, -0.10086385160684586, -0.15445557236671448, -0.021113693714141846, 0.0331195592880249, 0.02060765027999878, 0.14768844842910767, 0.11062034964561462, 0.2161864936351776, 0.0379471480846405], [-0.03426240012049675, 0.07908967137336731, -0.03763823211193085, 0.2201504111289978, -0.10129525512456894, -0.03354440629482269, 0.1142057254910469, 0.015682047232985497, 0.42066246271133423, 0.008267567493021488, -0.1498151272535324, 0.03483530133962631, -0.014847397804260254, -0.10680735111236572, 0.26400625705718994, 0.10508781671524048, -0.25063490867614746, -0.10377129912376404, 0.019474640488624573, 0.09992649406194687], [-0.054714057594537735, 0.19551244378089905, -0.2549828290939331, 0.18385139107704163, -0.1029665544629097, 0.04391505569219589, -0.22177676856517792, 0.18594834208488464, -0.06661216914653778, -0.051067911088466644, 0.21405285596847534, -0.043680477887392044, -0.20268477499485016, -0.21664495766162872, -0.04075340926647186, 0.040832072496414185, -0.007708117365837097, 0.03347322344779968, 0.18671008944511414, 0.1603379249572754], [0.23715220391750336, 0.1566111147403717, 0.18334749341011047, -0.06717299669981003, -0.04033045470714569, 0.2256113737821579, -0.009983728639781475, 0.20138779282569885, -0.4093663692474365, -0.1342063695192337, 0.2072075605392456, -0.01999657042324543, 0.2381860613822937, 0.09826282411813736, -0.02478022500872612, -0.15506987273693085, -0.05905252322554588, 0.11749708652496338, 0.036392465233802795, 0.13814613223075867], [0.13291902840137482, 0.19232013821601868, 0.054870519787073135, 0.09020144492387772, -0.2132723182439804, 0.1200467124581337, 0.042794402688741684, -0.1710045039653778, -0.13829389214515686, 0.1951185017824173, -0.0648685097694397, -0.24823197722434998, -0.24187955260276794, -0.016092179343104362, -0.20585794746875763, -0.11367776989936829, -0.04181741178035736, -0.15194901823997498, 0.03618967533111572, 0.10047528147697449], [0.189626544713974, 0.20270565152168274, 0.17739178240299225, 0.0347600020468235, 0.19486072659492493, 0.011931666173040867, -0.14359843730926514, 0.15369170904159546, -0.20826807618141174, 0.013112550601363182, 0.13555535674095154, 0.11037488281726837, 0.07079832255840302, -0.2616429030895233, 0.15368513762950897, 0.023115849122405052, 0.35080429911613464, 0.13735035061836243, -0.2298305630683899, 0.1695242077112198], [-0.16096054017543793, 0.13428273797035217, -0.017794370651245117, 0.08979786187410355, 0.08673249930143356, 0.022490903735160828, 0.19664694368839264, 0.12647394835948944, -0.08664993941783905, 0.2816157042980194, 0.08739777654409409, -0.15499646961688995, 0.21554577350616455, 0.14884640276432037, -0.170223668217659, -0.03351496905088425, 0.2920641601085663, 0.19304221868515015, -0.049205631017684937, -0.06791280955076218], [-0.04364734888076782, -0.19756528735160828, 0.07623246312141418, 0.03334048390388489, 0.03554293513298035, -0.11477434635162354, -0.20822486281394958, -0.05076964199542999, 0.11118680238723755, -0.2024552822113037, -0.14356619119644165, -0.07764817774295807, 0.060434192419052124, 0.21505913138389587, -0.18437078595161438, 0.18173864483833313, -0.027368977665901184, -0.1520509570837021, 0.119590163230896, 0.1562460958957672], [0.10492999106645584, 0.01887466013431549, -0.09124939888715744, -0.08918482810258865, 0.02600952796638012, 0.014002140611410141, 0.19785919785499573, -0.16609205305576324, 0.1990058571100235, 0.10230189561843872, -0.1757461279630661, -0.07603129744529724, 0.19540579617023468, 0.16520170867443085, -0.17850597202777863, -0.18157950043678284, 0.29147762060165405, 0.20706221461296082, 0.17871028184890747, 0.11838069558143616], [0.06530000269412994, -0.14764437079429626, 0.27012622356414795, 0.10627149790525436, -0.3338906764984131, 0.11792267113924026, -0.18790040910243988, 0.11175372451543808, 0.21263867616653442, -0.16897469758987427, -0.17115060985088348, 0.3099331855773926, -0.11230986565351486, -0.11194930970668793, 0.051531169563531876, -0.04600869119167328, -0.0681733712553978, -0.1521300971508026, 0.18021611869335175, -0.028736161068081856], [0.047654297202825546, 0.08749300241470337, 0.09813117980957031, -0.09060864895582199, -0.158474862575531, -0.02908499352633953, 0.12436807155609131, -0.14888471364974976, 0.10670849680900574, 0.18490874767303467, 0.029566023498773575, -0.11964739859104156, 0.09457898139953613, -0.052301470190286636, 0.0027157587464898825, 0.2096482217311859, -0.05974258854985237, -0.10114371031522751, -0.03849898278713226, -0.20089378952980042], [-0.07533659785985947, 0.0741712749004364, 0.014624172821640968, -0.23835113644599915, 0.06537824124097824, 0.19226142764091492, 0.11041861772537231, -0.130411297082901, 0.7776089310646057, 0.03961126506328583, -0.12627600133419037, -0.24498111009597778, -0.0038246980402618647, 0.10365841537714005, -0.2306104302406311, -0.207410529255867, 0.20740599930286407, -0.16936901211738586, 0.14432188868522644, -0.05577048286795616], [0.0886969268321991, -0.029320910573005676, -0.10928013175725937, -0.17625471949577332, 0.25666311383247375, -0.21002916991710663, -0.06286938488483429, -0.1158951073884964, 0.7105115056037903, 0.04539112374186516, -0.4347922205924988, -0.11672724783420563, -0.204047292470932, -0.15406787395477295, -0.21691471338272095, -0.21381595730781555, 0.11008427292108536, 0.05111205577850342, 0.05947187542915344, 0.09982985258102417]], "bias": [-0.08561476320028305, -0.12208724021911621, -0.017046570777893066, 0.15427494049072266, -0.13731010258197784, -0.08154405653476715, -0.006423323415219784, -0.11068963259458542, 0.03714445233345032, 0.10783356428146362, 0.08661410212516785, -0.004633766133338213, 0.1337738335132599, 0.04921455681324005, -0.1291082352399826, -0.028045017272233963, 0.1368265300989151, -0.060123197734355927, 0.009029518812894821, 0.11497008055448532]}, {"weights": [[-0.001317415153607726, 0.049767136573791504, 0.06883829832077026, -0.05622990056872368, -0.027854353189468384, -0.25780239701271057, 0.11436757445335388, -0.06181979179382324, -0.3697209656238556, -0.001965457806363702, 0.17988671362400055, 0.07093160599470139, 0.2009299397468567, 0.2362319678068161, 0.11891874670982361, 0.22358310222625732, -0.15112240612506866, -0.038834646344184875, -0.0360952727496624, -0.0032404654193669558], [-0.2358257919549942, 0.22733984887599945, 0.13946524262428284, -0.15200716257095337, -0.029936835169792175, 0.25514036417007446, 0.17765899002552032, 0.08643674850463867, -0.3192554712295532, -0.08016931265592575, 0.1380498856306076, -0.16322745382785797, -0.0383400097489357, -0.01895720884203911, -0.10371364653110504, -0.048208121210336685, 0.1906634122133255, 0.014675742946565151, -0.15448884665966034, -0.07786682993173599], [-0.17945104837417603, 0.002800230635330081, -0.02755807340145111, -0.1214335486292839, -0.15394112467765808, -0.05384630709886551, -0.008278616704046726, 0.1964341402053833, -0.017308488488197327, -0.09339156001806259, 0.10128512978553772, -0.050254568457603455, -0.0775010883808136, -0.05610731244087219, 0.19519498944282532, 0.16163480281829834, 0.09695521742105484, -0.07523481547832489, 0.019575592130422592, 0.016349423676729202]], "bias": [0.04844571650028229, 0.12513744831085205, -0.032845329493284225]}]}, "easy": {"layers": [{"weights": [[0.4656192660331726, 0.3138061761856079], [-0.4675310552120209, 0.22028708457946777], [-0.5304795503616333, -0.026004672050476074], [-0.11587408185005188, 0.7219667434692383], [0.7576032876968384, 0.25867941975593567], [-0.5948706269264221, -0.5958560109138489], [-0.4310072958469391, -0.2352755218744278], [0.5205579996109009, 0.8666107058525085], [0.12988093495368958, -0.14220230281352997], [0.049328431487083435, 0.40662676095962524], [0.49518486857414246, -0.3415539860725403], [0.4392456114292145, 0.5941513180732727], [0.14514043927192688, 0.8794118165969849], [0.4358314275741577, -0.27123427391052246], [-0.19690147042274475, -0.6582099199295044], [-0.7145509719848633, -0.7144985795021057], [0.30993759632110596, 0.3905045688152313], [0.15461976826190948, 0.6646420359611511], [-0.5684179067611694, 0.5572326183319092], [0.38799962401390076, 0.629054069519043]], "bias": [-0.3175618648529053, -0.21408560872077942, -0.4561924934387207, 0.24783752858638763, -0.2837046682834625, -0.6516909003257751, 0.6457883715629578, 0.45219409465789795, 0.15138910710811615, 0.38071781396865845, 0.5296202301979065, 0.5079809427261353, 0.573107123374939, 0.7103740572929382, 0.8473632335662842, 0.7145519852638245, -0.3187936246395111, 0.6142659187316895, 0.5113934278488159, 0.6054477691650391]}, {"weights": [[0.1259656399488449, -0.15243485569953918, -0.07850201427936554, -0.033482931554317474, 0.06910312175750732, -0.03649897873401642, 0.07306607067584991, 0.10822529345750809, 0.12932118773460388, 0.22366301715373993, -0.01935451477766037, 0.13322515785694122, -0.10167024284601212, -0.06940334290266037, -0.04206674173474312, 0.5692421793937683, 0.16188758611679077, 0.24946072697639465, -0.10950972884893417, -0.12062757462263107], [0.2604236304759979, -0.3957233130931854, 0.09127357602119446, 0.0594063326716423, 0.009759977459907532, -0.026242941617965698, 0.14171810448169708, -0.1115298718214035, 0.0702088326215744, 0.07815025746822357, -0.04217232018709183, 0.05624786391854286, -0.08390889316797256, 0.0759216770529747, -0.06139913946390152, 0.49447593092918396, 0.3897359073162079, 0.05542801693081856, -0.14100097119808197, 0.12409018725156784], [0.01876990497112274, 0.06968033313751221, 0.001402825117111206, -0.028367742896080017, -0.1513715386390686, -0.006799817085266113, -0.14323067665100098, -0.1361798346042633, 0.03893953561782837, 0.12515637278556824, -0.223099023103714, -0.2041078805923462, -0.06284894049167633, -0.019417405128479004, 0.18163108825683594, -0.04565051198005676, -0.15414947271347046, 0.0691986083984375, 0.17385533452033997, -0.02066299319267273], [0.12331533432006836, -0.04417307674884796, 0.12413835525512695, 0.18362271785736084, -0.11602266877889633, 0.15005964040756226, 0.14598414301872253, -0.01601521670818329, -0.04779939353466034, 0.10100433230400085, -0.15636610984802246, -0.12602955102920532, 0.003529787063598633, -0.17191913723945618, 0.1587025225162506, -0.11757218092679977, -0.1336013674736023, -0.1419287919998169, -0.14886990189552307, -0.18336331844329834], [-0.1401544064283371, 0.18269141018390656, -0.1611621081829071, 0.1362018883228302, -0.18681472539901733, 0.06517422199249268, 0.05753343552350998, 0.06785333156585693, -0.1506240963935852, 0.10571714490652084, -0.20199404656887054, -0.07076705992221832, 0.21784375607967377, 0.15013211965560913, -0.06038261204957962, -0.2545967102050781, 0.12274651229381561, -0.17242678999900818, 0.17691530287265778, 0.007083545904606581], [0.28400710225105286, 0.426787406206131, -0.15462598204612732, -0.0738174170255661, 0.13859446346759796, -0.1022668406367302, -0.2393498718738556, -0.014962670393288136, 0.025174036622047424, -0.14054082334041595, 0.10554670542478561, 0.07614260911941528, 0.23587435483932495, -0.19974257051944733, -0.38973191380500793, -0.21912144124507904, 0.27233272790908813, 0.19410544633865356, 0.041863083839416504, 0.18154379725456238], [0.495696485042572, -0.3626178205013275, -0.13010501861572266, -0.03651504963636398, 0.3706859350204468, 0.21019870042800903, -0.14059467613697052, 0.2735435366630554, -0.061906635761260986, 0.17981968820095062, -0.00871753878891468, 0.14094986021518707, 0.291629821062088, 0.21146003901958466, -0.13348785042762756, 0.318643182516098, 0.11278174817562103, 0.24615223705768585, 0.026522647589445114, 0.18703652918338776], [0.13964614272117615, -0.022378385066986084, -0.05817583203315735, 0.19539913535118103, 0.041442036628723145, 0.016251683235168457, -0.13860860466957092, 0.09373077750205994, -0.023328542709350586, 0.036374300718307495, 0.08922931551933289, -0.18208593130111694, -0.190078467130661, 0.000987708568572998, 0.14006856083869934, -0.05378448963165283, 0.023123174905776978, 0.11103039979934692, -0.006939142942428589, -0.06759221851825714], [-0.6863345503807068, -0.10615797340869904, -0.07284809648990631, -0.08067391067743301, -0.515130341053009, -0.19844162464141846, 0.4833475947380066, -0.18890249729156494, 0.09296058118343353, 0.18423867225646973, -0.017009112983942032, -0.14102116227149963, -0.20729263126850128, 0.1935073584318161, 0.4333389103412628, 0.21391652524471283, -0.948723316192627, -0.20842519402503967, 0.28511661291122437, -0.020195769146084785], [-0.14670349657535553, 0.22010642290115356, -0.05379986763000488, 0.15518005192279816, -0.24854888021945953, -0.14105910062789917, 0.14194807410240173, -0.016246141865849495, -0.13900698721408844, -0.10025279223918915, -0.11398150771856308, -0.0013046079548075795, 0.23012946546077728, -0.020520571619272232, 0.2102946639060974, -0.4315294921398163, -0.40889954566955566, 0.1417442113161087, 0.22380569577217102, 0.009479469619691372], [-0.0002604275941848755, -0.11131138354539871, -0.06631673872470856, -0.1053076982498169, 0.121985524892807, 0.16594576835632324, -0.173910990357399, 0.1460605263710022, 0.0780128538608551, -0.18612408638000488, 0.19164282083511353, -0.17618690431118011, -0.20677107572555542, -0.19218143820762634, 0.17161992192268372, -0.04993550479412079, 0.10118633508682251, 0.11422833800315857, -0.16998404264450073, -0.11879212409257889], [0.1537994146347046, -0.19660809636116028, -0.11195246130228043, -0.035324305295944214, 0.08724462985992432, 0.19749143719673157, -0.00011850893497467041, -0.14859241247177124, -0.18807575106620789, -0.06553635001182556, -0.04721687734127045, 0.000718429684638977, -0.021331578493118286, 0.17854860424995422, -0.03339400887489319, 0.04188913106918335, 0.21462270617485046, -0.08536656200885773, -0.15907472372055054, -0.01649092137813568], [-0.06416913866996765, 0.07326740026473999, -0.1263343095779419, -0.1903620958328247, 0.08891922235488892, -0.14529256522655487, -0.10157903283834457, -0.18169814348220825, -0.01992298662662506, 0.07176679372787476, 0.12418010830879211, -0.20302614569664001, 0.15628954768180847, -0.05906997621059418, 0.14602252840995789, 0.1386573314666748, 0.016698792576789856, 0.08944383263587952, -0.1557459533214569, 0.012818053364753723], [0.2742576003074646, -0.1941879242658615, 0.16360488533973694, 0.19927848875522614, 0.2846006453037262, 0.16391459107398987, -0.13355116546154022, 0.1552480161190033, -0.2363543063402176, 0.08756308257579803, 0.1151648685336113, -0.14891661703586578, 0.1203014925122261, 0.18255893886089325, 0.10358288884162903, 0.5416789650917053, 0.43312349915504456, 0.10710685700178146, 0.027129773050546646, 0.0449175201356411], [0.0056478530168533325, -0.018506765365600586, -0.09299452602863312, -0.1385623812675476, -0.12415928393602371, 0.08832907676696777, -0.04758624732494354, 0.048691898584365845, 0.09491303563117981, -0.22192637622356415, -0.14992626011371613, -0.14228346943855286, -0.0733339786529541, -0.17159786820411682, -0.1784437596797943, -0.06618334352970123, -0.09806521236896515, -0.10533025115728378, 0.08014610409736633, -0.0624830424785614], [-0.10790721327066422, 0.2501944601535797, -0.14459708333015442, -0.1490902453660965, -0.0256415456533432, -0.22166290879249573, -0.04727189242839813, -0.08389506489038467, 0.14356093108654022, -0.1327284425497055, 0.21076206862926483, 0.16520531475543976, 0.09795117378234863, 0.16726359724998474, 0.3584594428539276, -0.4969940483570099, -0.06504116207361221, -0.0907222330570221, -0.13786867260932922, 0.06408543139696121], [0.10048651695251465, -0.1379760205745697, -0.06401495635509491, -0.0691240131855011, -0.20916613936424255, -0.07901129126548767, -0.0636492371559143, -0.16963723301887512, -0.01835593581199646, 0.13093456625938416, -0.037233248353004456, 0.0840337872505188, -0.20207810401916504, 0.05074244737625122, 0.03340095281600952, -0.03560000658035278, 0.20511507987976074, -0.13247491419315338, -0.13618239760398865, 0.10041552782058716], [-0.03830191493034363, -0.0037888288497924805, -0.0475812703371048, 0.08009839057922363, -0.019666194915771484, -0.1691834032535553, 0.11648744344711304, -0.12406595796346664, -0.10243812948465347, -0.03262029588222504, -0.18367186188697815, -0.1600094735622406, -0.12499156594276428, 0.15525248646736145, -0.2047135978937149, 0.11846160888671875, 0.2081059217453003, -0.12856334447860718, 0.04185003042221069, 0.16620752215385437], [0.29812392592430115, -0.31641843914985657, -0.007493272423744202, 0.14825579524040222, 0.08090528845787048, 0.175327867269516, -0.1752321422100067, -0.09331222623586655, 0.01863304153084755, -0.03076357953250408, -0.09173160046339035, 0.15178924798965454, 0.19108283519744873, 0.004228446166962385, -0.1485900729894638, 0.49537134170532227, 0.4915686547756195, -0.03003504127264023, 0.17891329526901245, 0.18216347694396973], [0.0970330536365509, -0.20252260565757751, 0.06237486004829407, -0.12965446710586548, 0.1679101288318634, 0.05149230360984802, 0.03209766745567322, -0.19395866990089417, -0.19583280384540558, -0.1012740358710289, -0.10183199495077133, -0.21806013584136963, -0.13361135125160217, -0.16435688734054565, -0.2031983733177185, 0.1020512580871582, -0.1499333679676056, 0.14691457152366638, -0.1784653514623642, -0.14634516835212708]], "bias": [-0.2438472956418991, 0.08127612620592117, -0.20053620636463165, 0.024159535765647888, 0.09412171691656113, -0.18921594321727753, -0.014917310327291489, -0.16791489720344543, 0.31549546122550964, -0.09553413838148117, -0.10154371708631516, -0.14671505987644196, -0.14195048809051514, -0.16284695267677307, 0.027081668376922607, 0.04600296914577484, -0.1754457652568817, 0.15420636534690857, 0.05685599893331528, -0.06845901906490326]}, {"weights": [[0.04605698585510254, 0.24961617588996887, 0.11034521460533142, -0.016035526990890503, -0.12186326831579208, -0.09419770538806915, 0.2364286184310913, 0.0825776755809784, 0.5233635306358337, -0.2826766073703766, 0.1101057231426239, -0.08264991641044617, 0.03888598084449768, 0.25047144293785095, -0.10392145812511444, -0.15061721205711365, -0.020698130130767822, 0.19304558634757996, 0.26585590839385986, 0.12649023532867432], [0.10439776629209518, 0.2630477547645569, 0.04197812080383301, -0.14916932582855225, -0.2481427639722824, 0.2771385610103607, 0.17550544440746307, 0.19889086484909058, 0.5192145705223083, -0.32790276408195496, 0.07596859335899353, 0.06064325571060181, 0.1144869327545166, 0.25016555190086365, -0.16205158829689026, -0.008387784473598003, -0.20605431497097015, 0.04418960213661194, 0.32291164994239807, 0.12973013520240784], [0.09523452073335648, 0.0369831807911396, -0.04554079473018646, -0.21963483095169067, -0.14543916285037994, -0.07248575240373611, -0.03268495947122574, 0.08415579795837402, 0.08828135579824448, 0.053702231496572495, 0.19629189372062683, -0.14465530216693878, 0.21929770708084106, -0.006081444676965475, -0.1114192008972168, -0.2857034504413605, -0.1436162292957306, -0.03946615755558014, 0.06982455402612686, 0.009248092770576477], [0.1700899302959442, -0.1763610541820526, -0.1533145308494568, 0.21898365020751953, 0.1862385869026184, -0.20262572169303894, -0.04961700737476349, 0.006415307521820068, 0.06432056427001953, -0.005949646234512329, 0.11774590611457825, 0.19643956422805786, 0.007829084992408752, -0.009089112281799316, -0.0370485782623291, -0.04945933818817139, -0.0233030766248703, 0.10007709264755249, -0.060249537229537964, 0.21199920773506165], [0.13166625797748566, 0.10586512088775635, -0.11781506985425949, 0.057968735694885254, 0.1954604685306549, -0.10335850715637207, -0.07277284562587738, 0.019596397876739502, 0.1702328622341156, -0.13955149054527283, 0.1283809244632721, 0.05884528160095215, -0.03923170268535614, -0.03972810134291649, 0.11105015873908997, 0.13859280943870544, 0.14904075860977173, 0.01382620632648468, -0.23171019554138184, -0.058669447898864746], [0.10047218203544617, 0.13285298645496368, -0.17479878664016724, -0.02118070423603058, 0.04255935549736023, -0.06697610020637512, -0.1131383553147316, -0.07532185316085815, 0.15653526782989502, -0.08444468677043915, 0.14762204885482788, -0.07935698330402374, -0.06823679804801941, 0.05164873227477074, -0.14384636282920837, -0.22121478617191315, -0.14742416143417358, 0.15170729160308838, -0.16768750548362732, -0.16288140416145325], [0.08010446280241013, 0.19416140019893646, -0.10039294511079788, -0.06573054194450378, -0.08289647847414017, -0.07024655491113663, 0.009573781862854958, 0.0037780404090881348, -0.2519649863243103, 0.1844443678855896, 0.1225234866142273, 0.1907266080379486, -0.028794139623641968, 0.17142027616500854, -0.07732334733009338, 0.24138005077838898, 0.07218006253242493, -0.019713476300239563, -0.18466606736183167, 0.21591797471046448], [-0.2312646508216858, 0.19895954430103302, 0.054757773876190186, -0.10412932187318802, 0.08174698054790497, 0.11611536890268326, 0.023870674893260002, -0.06885166466236115, 0.12633360922336578, -0.10530070960521698, 0.12396785616874695, 0.08840778470039368, 0.02913418412208557, -0.12563398480415344, -0.0365983247756958, -0.16741925477981567, 0.22302213311195374, 0.18939155340194702, -0.021790213882923126, 0.03048643469810486], [0.23750655353069305, 0.009551387280225754, -0.21753354370594025, -0.05596761405467987, -0.18696501851081848, 0.3517560064792633, 0.3368242681026459, 0.08921432495117188, -0.14204706251621246, -0.10004165768623352, -0.1756671667098999, -0.10292249917984009, 0.009602829813957214, 0.06042105704545975, -0.1539578139781952, 0.1849263459444046, 0.22318121790885925, -0.1723822057247162, 0.011984381824731827, -0.05383625626564026], [-0.039682935923337936, -0.07902784645557404, -0.08609676361083984, 0.0895843505859375, 0.04499372839927673, 0.07779815793037415, -0.11929342895746231, -0.20531192421913147, 0.0057664066553115845, 0.18679820001125336, -0.019063875079154968, 0.21566107869148254, -0.15898701548576355, -0.14909698069095612, -0.19059768319129944, -0.09848378598690033, -0.03804609179496765, 0.16313835978507996, -0.1833227425813675, -0.01946379244327545], [-0.11347466707229614, -0.18150337040424347, 0.025681033730506897, 0.1790522336959839, -0.04135601222515106, -0.24738095700740814, 0.08345860242843628, -0.011422261595726013, 0.2232162207365036, 0.24681659042835236, -0.06815303862094879, -0.21661466360092163, -0.1855621337890625, 0.15370142459869385, -0.2169223427772522, 0.22659893333911896, 0.136732280254364, -0.04461383819580078, -0.13040387630462646, -0.010478749871253967], [0.13625122606754303, 0.027766309678554535, 0.06149360537528992, -0.135084867477417, 0.12681114673614502, -0.03892810270190239, -0.03167780861258507, -0.16593775153160095, -0.1130584180355072, -0.07600836455821991, 0.057534754276275635, -0.16400444507598877, 0.006075173616409302, 0.13563589751720428, 0.07592728734016418, -0.1942264884710312, 0.0005590617656707764, -0.21688590943813324, -0.23796208202838898, -0.1728353649377823], [-0.08383157849311829, 0.04743250831961632, -0.039509713649749756, 0.16923725605010986, -0.17378993332386017, 0.3371344804763794, 0.14377862215042114, 0.03560763597488403, -0.30110636353492737, 0.22688011825084686, 0.1152380108833313, -0.05528530478477478, -0.13141921162605286, -0.10071341693401337, -0.04062655568122864, 0.20546866953372955, -0.14642757177352905, -0.18963509798049927, 0.16110461950302124, 0.09003624320030212], [-0.17759808897972107, -0.245408296585083, 0.07983571290969849, -0.11235736310482025, -0.05366998910903931, 0.39408355951309204, 0.26177090406417847, -0.01597084105014801, -0.13649606704711914, 0.19432352483272552, -0.15918828547000885, -0.2083696871995926, 0.19849392771720886, 0.17291662096977234, 0.20019832253456116, -0.03626137599349022, -0.09442925453186035, 0.18316110968589783, 0.029128624126315117, 0.16636043787002563], [-0.0038145696744322777, 0.03748922049999237, -0.014817655086517334, 0.012455850839614868, 0.009906371124088764, -0.03541514649987221, 0.1654949188232422, -0.017827779054641724, 0.38384202122688293, -0.31651872396469116, -0.023288816213607788, 0.044309914112091064, 0.032058268785476685, 0.15847638249397278, -0.10216119885444641, -0.3501596748828888, 0.2043933868408203, -0.046863287687301636, 0.11822403222322464, 0.09785410761833191], [0.06793784350156784, -0.059755947440862656, -0.1985194981098175, 0.03640967607498169, -0.18911385536193848, -0.12934516370296478, 0.09270022064447403, -0.07548300921916962, 0.1886781007051468, 0.07717385143041611, 0.05473947525024414, 0.006697937846183777, 0.04961857199668884, -0.0871538296341896, 0.19517457485198975, 0.11706110835075378, -0.030280902981758118, -0.055148348212242126, -0.1909034103155136, 0.11085101962089539], [0.35214364528656006, 0.08037545531988144, -0.09268288314342499, -0.09136508405208588, -0.18723289668560028, 0.16215141117572784, 0.2119825929403305, -0.1854536533355713, 0.1988435834646225, -0.27521026134490967, -0.1911660134792328, 0.10351064801216125, -0.17137432098388672, 0.29677703976631165, -0.04619784653186798, -0.30226460099220276, 0.12271666526794434, 0.12409558892250061, 0.08160638809204102, 0.14562618732452393], [0.14999474585056305, -0.040901727974414825, 0.0005264580249786377, -0.191584512591362, -0.14737853407859802, 0.06438185274600983, -0.0387747660279274, -0.16847556829452515, -0.20956283807754517, 0.0039224773645401, -0.06760765612125397, 0.054815322160720825, -0.1663023829460144, 0.20034341514110565, -0.09817010164260864, -0.03391537442803383, -0.1427341252565384, -0.009888574481010437, -0.137563094496727, -0.22171051800251007], [0.3404443562030792, 0.2325565665960312, 0.2214517593383789, -0.009821861982345581, -0.11430715024471283, -0.007312406785786152, 0.19334547221660614, 0.17573115229606628, 0.4068746566772461, -0.4114387333393097, -0.13342013955116272, 0.06814894080162048, 0.13414421677589417, 0.18071074783802032, -0.03218832612037659, -0.06470418721437454, -0.03480003774166107, -0.14351296424865723, 0.17331267893314362, -0.2062021791934967], [-0.09775973856449127, 0.048768430948257446, 0.007155090570449829, 0.20581471920013428, 0.16491001844406128, -0.20712125301361084, -0.059413760900497437, 0.17351940274238586, -0.20628634095191956, -0.08214303851127625, -0.05752086639404297, -0.10257391631603241, -0.04625461995601654, -0.14890941977500916, 0.18330571055412292, -0.08218558132648468, 0.09592083096504211, -0.12456850707530975, -0.10341120511293411, 0.21832749247550964]], "bias": [0.20180007815361023, -0.10285994410514832, -0.2747802734375, -0.0985359251499176, -0.13886594772338867, -0.16093170642852783, 0.06360489875078201, -0.09021936357021332, 0.11973904073238373, 0.11108195781707764, 0.19641700387001038, 0.0629223883152008, 0.12257940322160721, -0.05301434546709061, -0.08885890990495682, 0.20744983851909637, 0.037880025804042816, -0.15078645944595337, -0.25363388657569885, -0.15327191352844238]}, {"weights": [[-0.10417667031288147, 0.17031139135360718, -0.04282289743423462, -0.10299324244260788, 0.08988597989082336, -0.08950948715209961, 0.01653699018061161, -0.2174658328294754, 0.007261423394083977, -0.20677581429481506, -0.13110262155532837, -0.20632725954055786, 0.11781038343906403, -0.0668778046965599, -0.2030387818813324, 0.10061696171760559, 0.13003922998905182, -0.21177363395690918, -0.19428148865699768, 0.1602889597415924], [-0.06344372034072876, 0.024442166090011597, 0.0012188702821731567, 0.22087600827217102, -0.1513758897781372, 0.1356220543384552, 0.0910693109035492, -0.17806094884872437, 0.027041107416152954, 0.17355751991271973, 0.19562304019927979, -0.04298548400402069, -0.20062923431396484, 0.011662319302558899, -0.16911765933036804, 0.10664165019989014, -0.03238363564014435, -0.18223989009857178, 0.01090782880783081, -0.09309519827365875], [-0.09367586672306061, -0.07442473620176315, -0.03130578249692917, -0.16394619643688202, 0.036357615143060684, 0.0653204619884491, 0.3908980190753937, 0.06102568656206131, 0.29538050293922424, -0.014678594656288624, 0.15522821247577667, 0.06806630641222, 0.33155444264411926, 0.27730196714401245, -0.20586661994457245, 0.16036583483219147, 0.08366274833679199, 0.11385441571474075, -0.27705737948417664, -0.15779812633991241], [-0.13680078089237213, -0.1434815675020218, -0.1140308827161789, -0.20173797011375427, 0.12864622473716736, -0.2015404999256134, -0.018634172156453133, 0.04788787290453911, -0.08020424842834473, 0.17666861414909363, 0.10114417225122452, 0.032457027584314346, -0.027035223320126534, 0.05611453577876091, 0.030364470556378365, 0.22936604917049408, 0.21821241080760956, 0.023536043241620064, -0.09790051728487015, 0.14837941527366638], [0.2379167228937149, 0.2859245240688324, -0.04346885904669762, 0.18567433953285217, -0.04422979801893234, -0.09491334110498428, -0.11009133607149124, -0.06065431237220764, 0.1968768686056137, 0.11341852694749832, 0.08666905760765076, -0.12909841537475586, 0.06676546484231949, -0.051647305488586426, 0.17436286807060242, -0.05077424272894859, 0.2978920638561249, -0.01961136981844902, 0.19625896215438843, 0.13441574573516846], [0.06190997362136841, 0.10451769828796387, -0.03551773726940155, 0.09854146838188171, -0.1706121563911438, 0.009398460388183594, 0.1472770869731903, -0.041325151920318604, -0.053474992513656616, 0.08452129364013672, 0.13959768414497375, 0.009375959634780884, -0.0028142333030700684, -0.13319045305252075, -0.033346027135849, -0.14461562037467957, -0.14737258851528168, -0.08963842689990997, -0.20619535446166992, -0.17063163220882416], [-0.16194888949394226, 0.09557229280471802, 0.1947179138660431, 0.037638694047927856, 0.19423913955688477, -0.13569168746471405, 0.1956532895565033, 0.07027044892311096, 0.0071091800928115845, -0.0516771525144577, 0.11429569125175476, 0.22056561708450317, -0.05726523697376251, 0.06721287965774536, -0.21051070094108582, 0.07140770554542542, -0.15784050524234772, 0.014645099639892578, 0.01711222529411316, -0.04846639931201935], [-0.1830340474843979, 0.0029501381795853376, 0.15022723376750946, -0.02318476140499115, -0.04281792789697647, -0.005113198421895504, 0.08380607515573502, 0.12156029045581818, -0.1787395179271698, -0.011044969782233238, 0.16813261806964874, -0.19202059507369995, -0.12564270198345184, 0.023420922458171844, 0.27601611614227295, 0.007355600129812956, 0.002542563248425722, 0.045989446341991425, 0.14250145852565765, 0.11100420355796814], [0.2591046094894409, 0.06505241245031357, 0.12427693605422974, -0.18705323338508606, 0.08427761495113373, 0.12557190656661987, -0.04445410892367363, 0.04990176856517792, -0.05483423173427582, -0.15822428464889526, 0.2232677936553955, -0.0716264396905899, -0.08191908150911331, -0.020064672455191612, -0.24305830895900726, -0.1920960247516632, -0.1330760270357132, -0.18333889544010162, -0.2610745131969452, -0.09721381962299347], [0.19749952852725983, 0.2290591448545456, 0.038610439747571945, 0.19781920313835144, -0.18220898509025574, 0.006366442888975143, -0.5469236373901367, -0.1267891228199005, 0.03370215371251106, 0.2133581042289734, -0.16240721940994263, 0.09610449522733688, -0.16452889144420624, -0.031384967267513275, 0.34511223435401917, 0.07014250755310059, 0.2274521142244339, -0.08232128620147705, 0.28613242506980896, 0.011786222457885742], [0.14981408417224884, -0.13916562497615814, 0.04637647792696953, 0.15081200003623962, 0.03542460501194, -0.10148701071739197, -0.016405994072556496, -0.07981434464454651, -0.03466840460896492, 0.034748539328575134, 0.1331799477338791, -0.15522947907447815, -0.08765362948179245, -0.310454785823822, 0.14331629872322083, -0.300313264131546, 0.0438823476433754, 0.10686006397008896, -0.10207448899745941, 0.19633397459983826], [0.2388884425163269, 0.10541131347417831, -0.05029813200235367, 0.009313017129898071, 0.1040969267487526, -0.16561225056648254, 0.08977442234754562, 0.10404695570468903, 0.1255822330713272, 0.10387340933084488, 0.22432966530323029, 0.07323866337537766, 0.29631319642066956, 0.35712292790412903, -0.25003737211227417, 0.21030117571353912, -0.1472393423318863, -0.03873942047357559, -0.18678346276283264, -0.19266028702259064], [0.2496536672115326, 0.1691005378961563, 0.10972190648317337, -0.11543186753988266, -0.12110541760921478, 0.1326359063386917, -0.16320565342903137, 0.10099621117115021, -0.1598961055278778, -0.1268952190876007, 0.09321746975183487, -0.002147565595805645, -0.07518106698989868, 0.08781486749649048, 0.35683661699295044, -0.11215931177139282, 0.12681569159030914, -0.00639339629560709, 0.25685760378837585, 0.018739819526672363], [-0.20236030220985413, -0.16248761117458344, 0.06494483351707458, -0.05976049602031708, 0.145453542470932, 0.07911723852157593, -0.16210578382015228, -0.1537153571844101, 0.09291934967041016, 0.10470154881477356, -0.13187992572784424, 0.011439099907875061, 0.07784688472747803, -0.22192776203155518, -0.2227398157119751, 0.024949118494987488, -0.08139905333518982, -0.1510918140411377, -0.18761715292930603, -0.08308999240398407], [-0.11159905791282654, -0.10706839710474014, 0.12678298354148865, -0.08703039586544037, 0.17966797947883606, 0.20509076118469238, 0.17060843110084534, -0.05316612124443054, -0.10384321212768555, 0.06351539492607117, -0.12911008298397064, -0.2123667597770691, -0.07527042925357819, 0.1232023537158966, 0.16805599629878998, -0.017682209610939026, 0.05420125648379326, 0.19968104362487793, 0.07110605388879776, -0.19539479911327362], [-0.07748482376337051, 0.14276038110256195, -0.1513127237558365, -0.01880514621734619, 0.2298983335494995, -0.1307418793439865, -0.02769329585134983, -0.1758904606103897, 0.08508113771677017, -0.09317213296890259, 0.23521688580513, 0.05889202654361725, 0.021627826616168022, 0.08056475222110748, 0.1985471248626709, 0.10190647840499878, 0.26792439818382263, -0.026544660329818726, 0.44421032071113586, -0.16173596680164337], [0.24425539374351501, -0.07221929728984833, 0.17788486182689667, -0.15627828240394592, 0.0412481389939785, -0.11682219058275223, -0.1316543072462082, -0.042550358921289444, -0.08255111426115036, 0.1583525687456131, -0.04287504777312279, 0.04996825009584427, -0.07236298173666, 0.02200799062848091, 0.3699842095375061, 0.036062054336071014, 0.29680877923965454, 0.02458968199789524, 0.313831627368927, 0.03983414173126221], [0.02367408387362957, 0.27014660835266113, -0.011790983378887177, 0.16542324423789978, 0.018566716462373734, 0.20077766478061676, 0.11518016457557678, -0.12180381268262863, 0.21384987235069275, -0.0189709160476923, -0.1288985162973404, 0.16509851813316345, 0.13795599341392517, 0.26789912581443787, 0.060068272054195404, -0.06449940800666809, -0.02665468491613865, -0.020222879946231842, 0.16515395045280457, 0.06232061982154846], [-0.12311132997274399, 0.03259817138314247, -0.19697728753089905, -0.21604914963245392, 0.1495310664176941, -0.02907736599445343, 0.17463818192481995, -0.08242115378379822, -0.017011119052767754, -0.23150219023227692, -0.05079289525747299, 0.09529326856136322, 0.07428143173456192, 0.06221826374530792, -0.1238352432847023, 0.08964341878890991, -0.1847696155309677, 0.20251548290252686, 0.10367473214864731, -0.21542976796627045], [0.12010280042886734, 0.11575917899608612, 0.07709668576717377, -0.02715413272380829, -0.057393040508031845, 0.07380334287881851, -0.03279808163642883, -0.16725045442581177, 0.2948940694332123, -0.15918906033039093, -0.02057194896042347, -0.1066293865442276, 0.1517602801322937, 0.15161097049713135, 0.18828579783439636, 0.2710787057876587, 0.16734910011291504, -0.009881546720862389, 0.025913521647453308, 0.1812278926372528]], "bias": [-0.13288111984729767, -0.17738690972328186, 0.2068437784910202, -0.013008574023842812, -0.0849076434969902, -0.12487750500440598, -0.11999350786209106, 0.17769509553909302, 0.27710986137390137, -0.04238029196858406, 0.14746184647083282, 0.20037643611431122, -0.09703676402568817, 0.09619501233100891, -0.024234410375356674, 0.1350192129611969, 0.24227184057235718, 0.15888947248458862, -0.014965011738240719, -0.07593119889497757]}, {"weights": [[0.1375328004360199, -0.21759986877441406, 0.14633971452713013, -0.03534497693181038, -0.1210428923368454, 0.17776215076446533, 0.0736018717288971, 0.013536855578422546, -0.038511160761117935, 0.030970746651291847, -0.17797860503196716, -0.21696239709854126, 0.029736751690506935, -0.0821256935596466, 0.06349760293960571, -0.23602987825870514, 0.16629831492900848, 0.18568432331085205, 0.1493547409772873, -0.07879070937633514], [0.16751062870025635, 0.21872422099113464, -0.2079245001077652, -0.0405639223754406, -0.19878330826759338, 0.032859086990356445, 0.17723146080970764, -0.19535700976848602, -0.09269525855779648, 0.19257129728794098, 0.10997338593006134, 0.03351409733295441, 0.14002147316932678, -0.0597335547208786, 0.04228857159614563, -0.2000541090965271, -0.17597082257270813, -0.11074120551347733, 0.09095395356416702, -0.03555212914943695], [-0.013961777091026306, 0.14604514837265015, 0.04761120676994324, -0.0601898729801178, 0.21234843134880066, -0.11749386787414551, 0.005701079964637756, -0.11093147844076157, 0.03945907950401306, 0.1413804590702057, -0.029738962650299072, 0.004715636372566223, -0.18701070547103882, 0.17868289351463318, 0.08257675170898438, -0.1601713001728058, -0.07998274266719818, -0.13303664326667786, -0.20331694185733795, -0.17022278904914856], [0.09568095207214355, 0.18996036052703857, -0.08184496313333511, 0.2225538194179535, -0.08932900428771973, 0.18439212441444397, 0.18637946248054504, -0.21716327965259552, -0.14588592946529388, -0.12373276799917221, -0.25406932830810547, -0.03284522518515587, -0.15022189915180206, -0.21802513301372528, 0.18413937091827393, 0.08224734663963318, 0.1604103296995163, 0.1698879599571228, -0.04425205662846565, 0.2273411899805069], [-0.1213320642709732, -0.19925381243228912, -0.013301324099302292, 0.10488437116146088, 0.14369630813598633, 0.03616711497306824, 0.10437607765197754, -0.07755521684885025, -0.2596246600151062, -0.13124464452266693, 0.06643712520599365, -0.23689846694469452, -0.041360460221767426, 0.08507266640663147, -0.20544961094856262, 0.1653091013431549, 0.0362519696354866, 0.13146653771400452, 0.14085382223129272, -0.22644762694835663], [0.10069847851991653, -0.047773510217666626, 0.07576149702072144, 0.00953082088381052, 0.2525670826435089, 0.011682048439979553, 0.022185474634170532, -0.10584080964326859, 0.012187303975224495, 0.2832561731338501, -0.0981593206524849, -0.11214698106050491, 0.148992121219635, -0.12053076177835464, 0.19867943227291107, 0.037275344133377075, 0.17374320328235626, 0.18282411992549896, -0.10759144276380539, 0.040647268295288086], [0.09412757307291031, 0.17565038800239563, 0.04890598729252815, -0.059097856283187866, 0.09834101796150208, -0.00555787980556488, 0.08810919523239136, -0.11556883901357651, 0.14044611155986786, -0.11347545683383942, 0.2316202074289322, -0.1218431144952774, -0.11444846540689468, -0.028544828295707703, 0.1809351146221161, 0.12340342253446579, 0.05947341024875641, -0.049569856375455856, -0.1027766764163971, 0.014942333102226257], [0.02908909320831299, -0.2230077087879181, -0.04738296568393707, -0.03839068114757538, -0.12435182183980942, 0.016937896609306335, -0.07393728196620941, 0.1296018660068512, -0.16797219216823578, 0.07387334108352661, 0.15474697947502136, -0.0060126930475234985, 0.00630660355091095, -0.1319836974143982, -0.02141210436820984, -0.09714430570602417, 0.07711514830589294, 0.0341239869594574, -0.2132064253091812, -0.0028427094221115112], [-0.1351359337568283, 0.13121405243873596, -0.13863305747509003, -0.1717420220375061, 0.2053605169057846, -0.16511783003807068, -0.1254536509513855, 0.22294023633003235, -0.22646747529506683, 0.3521251976490021, 0.041413720697164536, -0.08309226483106613, 0.35129237174987793, -0.14104092121124268, 0.008949963375926018, 0.21448497474193573, 0.26304757595062256, 0.044418271631002426, 0.14806152880191803, 0.26568183302879333], [0.021670237183570862, -0.04388575255870819, -0.09543976187705994, 0.017530009150505066, -0.17581957578659058, -0.0665149986743927, -0.20760631561279297, -0.1166321337223053, -0.19344232976436615, 0.1503889560699463, -0.02035503089427948, -0.01103942096233368, 0.147433340549469, -0.14573441445827484, 0.0864601731300354, -0.18405400216579437, 0.10367283225059509, -0.19710606336593628, -0.179997518658638, -0.15965485572814941], [-0.16444802284240723, -0.15926961600780487, -0.2089531570672989, -0.05658745765686035, -0.10119638592004776, 0.010149508714675903, -0.07878896594047546, 0.11511194705963135, 0.12050065398216248, -0.021767079830169678, 0.03143396973609924, -0.22041867673397064, 0.022672832012176514, -0.0387209951877594, 0.21192091703414917, -0.059629201889038086, 0.20680105686187744, 0.18362873792648315, -0.06663890182971954, -0.05002357065677643], [0.07142683118581772, -0.16739869117736816, 0.3511507511138916, -0.14661827683448792, -0.0059463088400661945, 0.04214221239089966, -0.17514705657958984, -0.07266820967197418, 0.055702440440654755, -0.20713578164577484, -0.2578245997428894, 0.1963663548231125, -0.11099570244550705, -0.11343216150999069, 0.08868096023797989, -0.007847760803997517, 0.12126482278108597, 0.22631362080574036, -0.17764055728912354, 0.22381268441677094], [-0.1337289810180664, -0.19555939733982086, 0.10393708944320679, -0.053008317947387695, -0.0927131325006485, 0.17052674293518066, 0.05057463049888611, -0.10716040432453156, -0.19921062886714935, -0.2191191464662552, 0.02093389630317688, 0.018938526511192322, 0.18267670273780823, -0.20641817152500153, 0.14136624336242676, 0.06875282526016235, -0.12082613259553909, -0.07700449228286743, -0.0924403965473175, 0.11440378427505493], [0.11114498972892761, 0.038631826639175415, 0.034220580011606216, 0.08208253979682922, -0.0693400651216507, -0.1427638679742813, -0.22087505459785461, -0.17126433551311493, 0.09582553803920746, 0.06651760637760162, -0.03254438564181328, -0.2245240956544876, -0.12938426434993744, 0.18564489483833313, 0.16372445225715637, -0.10062815248966217, -0.05828632414340973, -0.011962446384131908, 0.04180871695280075, -0.004312112927436829], [0.1311873495578766, 0.18131065368652344, 0.1294316053390503, 0.060901667922735214, -0.23897165060043335, -0.13847944140434265, -0.17581550776958466, 0.1503916084766388, 0.19042105972766876, -0.2566714584827423, 0.013274796307086945, 0.17509308457374573, 0.11739414930343628, 0.12778055667877197, 0.11372953653335571, -0.02677157148718834, -0.10510750114917755, 0.14975565671920776, 0.07749338448047638, 0.14203359186649323], [-0.0943499431014061, -0.08608695864677429, -0.06006885692477226, -0.14626501500606537, 0.25716260075569153, 0.01500152051448822, 0.09281125664710999, 0.07232710719108582, -0.16571223735809326, 0.2808889150619507, -0.07887211441993713, 0.08225453644990921, 0.29093560576438904, 0.19013085961341858, -0.09600969403982162, 0.27588900923728943, 0.06116814911365509, 0.2525564134120941, -0.14466147124767303, 0.3298661410808563], [-0.20074462890625, -0.1122230663895607, 0.18001389503479004, 0.16023239493370056, 0.07574152201414108, -0.20039498805999756, -0.1572527140378952, 0.042933471500873566, 0.1492970734834671, -0.32223039865493774, 0.07878314703702927, 0.023520823568105698, -0.07064639031887054, -0.19220103323459625, 0.19688330590724945, 0.1238713189959526, -0.003667595097795129, 0.023272467777132988, 0.04800012707710266, 0.04239910840988159], [-0.08987272530794144, 0.18986311554908752, -0.16901734471321106, 0.05857047811150551, 0.13296042382717133, 0.05719351768493652, -0.1355656534433365, 0.21534857153892517, 0.2399909645318985, 0.39662966132164, -0.09604917466640472, 0.2509765625, 0.3414766490459442, 0.14122095704078674, 0.061868440359830856, 0.21663811802864075, 0.15537269413471222, -0.08386240154504776, -0.17689301073551178, -0.023068364709615707], [-0.16804102063179016, -0.21117059886455536, -0.18403872847557068, -0.13035091757774353, -0.0898415595293045, -0.12563884258270264, -0.08949880301952362, 0.07134366035461426, 0.03157290816307068, 0.0793316662311554, -0.19904451072216034, 0.1846664845943451, 0.21521225571632385, 0.03546115756034851, 0.00036932528018951416, -0.0007231831550598145, -0.047738462686538696, 0.055542051792144775, 0.19384777545928955, -0.07649058103561401], [-0.019371911883354187, 0.052984416484832764, 0.04151841625571251, 0.07401137053966522, -0.17279721796512604, 0.012076050043106079, -0.006447926163673401, 0.11138162761926651, -0.12731803953647614, -0.03609742224216461, -0.21035487949848175, -0.11269978433847427, -0.1996655911207199, -0.2090928852558136, -0.139638289809227, 0.0334644690155983, 0.15764234960079193, 0.081942118704319, -0.0756642073392868, -0.12023002654314041]], "bias": [0.09652798622846603, 0.0658428743481636, 0.020884156227111816, -0.11651649326086044, -0.044066693633794785, 0.23518946766853333, 0.11083343625068665, -0.12574315071105957, -0.22233618795871735, -0.056441083550453186, -0.10801707208156586, 0.04478655010461807, -0.21409915387630463, 0.08022903650999069, 0.18797588348388672, -0.11717893183231354, 0.21971434354782104, 0.06011207029223442, -0.19843550026416779, 0.05708968639373779]}, {"weights": [[-0.10216111689805984, -0.15741807222366333, 0.2037237286567688, 0.10843535512685776, -0.12457018345594406, -0.0006987084052525461, -0.19820953905582428, -0.11840169131755829, -0.03684823215007782, 0.21304377913475037, -0.20606940984725952, -0.05360279604792595, 0.08056318759918213, -0.20304682850837708, 0.07149595767259598, 0.07106197625398636, -0.2182052731513977, -0.18281713128089905, 0.1941390335559845, -0.19901931285858154], [-0.14694088697433472, 0.050174981355667114, 0.0198042094707489, -0.1167619377374649, 0.17150607705116272, -0.11411014199256897, -0.13531552255153656, 0.02827441692352295, -0.1935848891735077, 0.02456873655319214, 0.04317241907119751, 0.12234342098236084, -0.02862650156021118, -0.15893985331058502, 0.11491893231868744, 0.1063125729560852, -0.2677639424800873, 0.07245394587516785, -0.03816521167755127, 0.023290976881980896], [-0.14311835169792175, 0.0007193088531494141, 0.17689034342765808, 0.20803925395011902, 0.1254248470067978, 0.14300434291362762, -0.2368854582309723, 0.12305352091789246, 0.33475732803344727, 0.12109526991844177, 0.1085088849067688, 0.059375401586294174, -0.1291942298412323, 0.10345971584320068, -0.09101484715938568, 0.3346741497516632, -0.2121579796075821, 0.11608093976974487, -0.012578725814819336, 0.029452234506607056], [0.06478916853666306, 0.0608658567070961, -0.07905620336532593, 0.12424683570861816, -0.162643700838089, -0.21203362941741943, 0.1590406447649002, 0.16698628664016724, 0.028466105461120605, -0.10005617141723633, 0.09775838255882263, -0.1192750409245491, 0.12839677929878235, 0.0785556361079216, 0.1410747617483139, -0.13877379894256592, -0.00042113065137527883, 0.014097509905695915, -0.19457638263702393, 0.07889952510595322], [-0.20238660275936127, -0.009184202179312706, 0.21056166291236877, -0.1394844353199005, 0.07266636937856674, -0.17644049227237701, -0.1208597719669342, -0.08602026104927063, -0.0449017733335495, 0.11069118976593018, -0.12412577867507935, -0.10666421055793762, -0.15162424743175507, -0.1530245542526245, -0.1929273009300232, -0.20000095665454865, -0.053375039249658585, 0.11643330007791519, -0.168526291847229, 0.10544878244400024], [0.12541887164115906, 0.001147940754890442, 0.05346718430519104, 0.08003881573677063, -0.06424476206302643, 0.0012871325016021729, 0.12896621227264404, -0.10012686997652054, -0.15858125686645508, -0.031167373061180115, 0.06621253490447998, -0.0076618492603302, 0.03584432601928711, 0.16727882623672485, -0.15660814940929413, 0.023986726999282837, 0.1008145809173584, -0.060786813497543335, 0.20657408237457275, 0.0024400651454925537], [-0.1813632845878601, -0.14832048118114471, -0.09394875168800354, -0.170871302485466, -0.17865151166915894, 0.24042847752571106, 0.11092256754636765, 0.04725340008735657, 0.14991825819015503, 0.19123318791389465, 0.20855790376663208, -0.37111005187034607, -0.10221509635448456, -0.08010626584291458, 0.10809463262557983, 0.015715982764959335, -0.1202370896935463, 0.014997926540672779, 0.1686294972896576, 0.015883896499872208], [0.09254264831542969, -0.10322554409503937, -0.10448867082595825, 0.052388548851013184, -0.035684555768966675, -0.17022275924682617, -0.046521320939064026, -0.18991050124168396, -0.068417489528656, 0.09394943714141846, -0.09803599119186401, 0.22297272086143494, -0.03978326916694641, -0.10332657396793365, 0.17191553115844727, -0.22178152203559875, 0.013661518692970276, 0.1520824134349823, 0.11632677912712097, -0.0751207023859024], [-0.17768511176109314, 0.12664732336997986, 0.22353142499923706, -0.057907700538635254, 0.03660038486123085, 0.14066821336746216, 0.026463288813829422, 0.18623784184455872, 0.3535586893558502, 0.08122691512107849, -0.16251224279403687, -0.30977851152420044, -0.03298582136631012, -0.03523729741573334, -0.15806926786899567, 0.21145594120025635, 0.09675116091966629, 0.2869090139865875, -0.10234875231981277, 0.10335081815719604], [0.15553975105285645, 0.14108744263648987, 0.005378618836402893, -0.133111372590065, 0.028758563101291656, 0.14592954516410828, 0.0705614984035492, -0.17225098609924316, -0.04462839663028717, 0.22309982776641846, -0.1341342031955719, 0.32325538992881775, 0.032224833965301514, -0.042796581983566284, 0.1373743712902069, -0.06137333810329437, 0.04364625737071037, -0.09904387593269348, 0.18367400765419006, 0.06464307755231857], [0.0027500921860337257, 0.1125151738524437, -0.08212153613567352, -0.1933148056268692, 0.18812969326972961, -0.036188770085573196, -0.19088377058506012, -0.13180211186408997, 0.11055174469947815, -0.0061311274766922, -0.027356892824172974, 0.14352057874202728, -0.19717608392238617, 0.13007834553718567, -0.10024673491716385, -0.2441941648721695, -0.03892292082309723, -0.22349442541599274, -0.22258378565311432, 0.02171369269490242], [0.173595130443573, -0.010287880897521973, -0.1791084259748459, 0.10347609221935272, -0.10025756061077118, 0.1312418133020401, 0.03762037307024002, -0.04467290639877319, -0.016454128548502922, 0.15151682496070862, -0.061121538281440735, 0.2667516767978668, 0.21622884273529053, 0.013366147875785828, 0.0665137767791748, -0.09372713416814804, 0.0719352513551712, 0.029498420655727386, 0.192327082157135, -0.15344226360321045], [-0.010361909866333008, 0.043577224016189575, 0.013629034161567688, -0.010457311756908894, -0.20007574558258057, -0.12777000665664673, 0.04187736287713051, 0.17184042930603027, 0.0361805222928524, -0.027777954936027527, 0.025180786848068237, 0.2576572597026825, -0.0009538382291793823, 0.13661497831344604, 0.09546054899692535, -0.05254778265953064, 0.0076703354716300964, 0.267711877822876, 0.06554940342903137, 0.18522348999977112], [-0.1082080602645874, 0.16189590096473694, 0.024709805846214294, -0.11355392634868622, 0.1923598349094391, -0.10692468285560608, 0.21595102548599243, 0.20505523681640625, -0.0942104309797287, 0.1819482147693634, 0.07359462976455688, -0.1422068178653717, 0.044584184885025024, -0.05073362588882446, -0.013777777552604675, 0.014453500509262085, 0.1611838936805725, 0.03091612458229065, 0.09458485245704651, 0.10187608003616333], [0.07346217334270477, -0.07990667223930359, -0.040709540247917175, 0.14822456240653992, -0.19148153066635132, -0.16995829343795776, 0.022791877388954163, 0.026963382959365845, -0.08105865120887756, 0.11968201398849487, -0.029096022248268127, -0.08952794224023819, 0.17657846212387085, -0.1658414602279663, -0.10637590289115906, 0.07056163251399994, -0.2644137740135193, 0.026572104543447495, -0.006952211260795593, -0.17128504812717438], [0.10645464062690735, -0.20035284757614136, 0.2234901487827301, -0.07515932619571686, 0.06171587109565735, -0.22144398093223572, 0.14981460571289062, -0.022481918334960938, -0.10232763737440109, 0.12042954564094543, -0.17460153996944427, 0.20937633514404297, 0.07778602838516235, -0.15753358602523804, -0.04840117692947388, -0.15986119210720062, -0.08457782864570618, -0.18570104241371155, -0.022260650992393494, -0.1587587296962738], [0.0333135724067688, -0.12966515123844147, 0.13828793168067932, 0.030541228130459785, -0.10541606694459915, 0.014350717887282372, 0.19862143695354462, -0.20168843865394592, 0.051945507526397705, -0.09225742518901825, -0.08744186162948608, -0.17742617428302765, 0.0963166356086731, 0.20691916346549988, 0.059531282633543015, -0.06476177275180817, 0.12772981822490692, 0.2514292597770691, -0.08535069227218628, 0.1690959334373474], [-0.05956342816352844, -0.11317916959524155, 0.1621575951576233, 0.1644820272922516, 0.018510088324546814, 0.1520923674106598, 0.008828043937683105, -0.1663375347852707, -0.11648128926753998, -0.21014399826526642, 0.02696436643600464, -0.09073613584041595, -0.15836523473262787, 0.17806819081306458, 0.02823817729949951, -0.1712576001882553, -0.055999815464019775, 0.22148814797401428, -0.01711280643939972, 0.056251466274261475], [-0.1595364212989807, -0.06280579417943954, -0.2075343132019043, -0.271958589553833, 0.1020430400967598, 0.1454186737537384, 0.012074301950633526, 0.1082216203212738, 0.1167214959859848, 0.1669636070728302, -0.05925139784812927, -0.173365980386734, -0.0900498628616333, 0.06705646961927414, 0.03795028477907181, 0.06898140907287598, -0.20190221071243286, -0.07995086908340454, 0.19752603769302368, 0.20813554525375366], [-0.17165808379650116, 0.026440314948558807, 0.16001412272453308, 0.13821262121200562, 0.07192889600992203, 0.16054902970790863, 0.18165594339370728, 0.11417075991630554, 0.3579997420310974, -0.07551051676273346, 0.13318654894828796, -0.3145929276943207, 0.19999396800994873, 0.20026370882987976, -0.1734887659549713, -0.1807412952184677, 0.08500214666128159, 0.05728323385119438, -0.03295081853866577, 0.05871391296386719]], "bias": [-0.05378984659910202, -0.21702484786510468, -0.16814540326595306, -0.00013329324428923428, 0.07924541085958481, -0.0720634013414383, 0.12773145735263824, -0.2138366550207138, -0.07270491123199463, 0.0883607417345047, 0.15304209291934967, -0.09972910583019257, 0.07386214286088943, -0.11183688044548035, 0.09976870566606522, -0.12568888068199158, 0.1750892847776413, -0.20216985046863556, 0.14513011276721954, 0.21342119574546814]}, {"weights": [[-0.14367923140525818, -0.10288795083761215, 0.014173410832881927, -0.054613713175058365, 0.10944406688213348, 0.09991231560707092, 0.03349285200238228, -0.19911949336528778, -0.0003716923820320517, 0.25046923756599426, -0.055805183947086334, -0.1813201904296875, -0.05533938482403755, 0.07181918621063232, -0.0602928027510643, 0.15274563431739807, 0.14257918298244476, -0.20479023456573486, -0.038398053497076035, 0.0001555062917759642], [-0.09950920939445496, 0.10932028293609619, 0.009286683984100819, -0.03708924725651741, -0.05901792272925377, 0.15925928950309753, -0.10410188883543015, 0.17141243815422058, -0.09718716144561768, -0.0419471338391304, -0.08273552358150482, 0.24312232434749603, -0.015610246919095516, 0.1455499529838562, 0.12271184474229813, 0.11801540851593018, 0.20537152886390686, 0.17088130116462708, 0.24000704288482666, 0.07994931191205978], [-0.004747445695102215, 0.0507051981985569, 0.49174827337265015, -0.14463011920452118, -0.05806044861674309, -0.07531675696372986, 0.2302510291337967, -0.19998101890087128, 0.11318497359752655, -0.21797537803649902, -0.1782052218914032, -0.23190662264823914, -0.13524219393730164, 0.0889875590801239, -0.040111809968948364, 0.01750767230987549, 0.023185189813375473, 0.21395719051361084, 0.057400550693273544, 0.10402812063694]], "bias": [-0.08945991098880768, -0.08780770003795624, 0.19863562285900116]}]}, "medium": {"layers": [{"weights": [[-0.6884249448776245, -0.25237658619880676], [-0.6651983857154846, 0.7880410552024841], [-0.09700477123260498, -0.19563454389572144], [-0.09767818450927734, 0.39851683378219604], [-0.9080119132995605, 0.001313876244239509], [-0.6298435926437378, 0.005324724595993757], [0.5439073443412781, 0.799892246723175], [0.370771586894989, -0.5783581137657166], [0.4647686183452606, 0.21845270693302155], [0.7179524302482605, 0.4300270974636078], [-0.12192687392234802, -0.162560373544693], [0.001059722970239818, -1.6121243238449097], [0.9176300764083862, -0.0036883382126688957], [0.8171069025993347, -0.009398194029927254], [-1.1272947788238525, -0.00021672635921277106], [0.4216950833797455, -0.006436369381844997], [-0.3346494138240814, 0.7025766968727112], [0.029456377029418945, -0.180494487285614], [-0.09191727638244629, -0.22286364436149597], [-0.13351625204086304, -0.19272464513778687]], "bias": [-0.1530635952949524, 0.6014860272407532, -0.10355234146118164, -0.6108828186988831, 0.2986302971839905, 0.44636988639831543, -0.04056120291352272, 0.5630477666854858, -0.11782349646091461, -0.03571951016783714, 0.2787323296070099, 0.6748446226119995, -0.6740632057189941, -0.6122561693191528, 0.3387657105922699, 0.060963116586208344, 0.3456729054450989, -0.12233179807662964, 0.30801641941070557, -0.6919498443603516]}, {"weights": [[0.13662317395210266, -0.4285549223423004, -0.0409693568944931, 0.17091387510299683, 0.01460440456867218, -0.0776137262582779, -0.6577295064926147, 0.3791424036026001, -0.11601871997117996, -0.25751057267189026, -0.06237209215760231, 0.978412926197052, -0.12460651993751526, 0.257755845785141, 0.05768081545829773, 0.06924587488174438, -0.2986603379249573, 0.01889052987098694, 0.025494681671261787, 0.029521584510803223], [-0.013387173414230347, -0.128104105591774, -0.060046494007110596, 0.14441093802452087, -0.14685821533203125, 0.03995901346206665, 0.14743295311927795, -0.017108917236328125, 0.0623173713684082, 0.025393575429916382, 0.02349230647087097, -0.2034953236579895, -0.040705934166908264, -0.1361285001039505, 0.10726922750473022, -0.15998786687850952, 0.03774893283843994, 0.10216394066810608, 0.188439279794693, -0.04284924268722534], [-0.11699188500642776, -0.11466414481401443, -0.0241621732711792, -0.17129850387573242, -0.20485733449459076, 0.06942230463027954, -0.1921187788248062, -0.1524043083190918, 0.14370086789131165, -0.012659147381782532, 0.1128535270690918, 0.19264617562294006, -0.21341539919376373, -0.029431328177452087, 0.06215173006057739, 0.12608790397644043, -0.18272241950035095, -0.17366357147693634, -0.10038718581199646, 0.1389041543006897], [-0.05236487090587616, -0.14616626501083374, 0.07146063446998596, 0.04834264516830444, 0.08809137344360352, -0.095622718334198, -0.08843927085399628, 0.179986834526062, -0.09448686242103577, 0.06089934706687927, -0.15494871139526367, 0.05769360065460205, 0.10402697324752808, 0.12901809811592102, 0.07735729217529297, -0.15882296860218048, 0.0783892571926117, -0.1170654296875, -0.19747459888458252, 0.16992777585983276], [-0.12698161602020264, 0.22009876370429993, 0.17966121435165405, -0.034569770097732544, 1.0882173776626587, 0.0649477168917656, 0.38013797998428345, -0.14165247976779938, 0.11180832237005234, 0.10254461318254471, 0.09720207005739212, 0.11064738780260086, 0.9639883637428284, 0.5919837951660156, 0.5556109547615051, -0.19740630686283112, -0.07682439684867859, -0.08254493772983551, -0.11632149666547775, -0.06657426059246063], [0.052680253982543945, -0.2645267844200134, 0.012304753065109253, 0.12367182970046997, 0.006311975419521332, 0.10674908757209778, -0.10524031519889832, -0.17577004432678223, 0.0696631371974945, -0.1194915622472763, 0.06989984959363937, 0.06949636340141296, 0.008112043142318726, -0.20120610296726227, -0.021307790651917458, -0.17506082355976105, 0.1420750617980957, 0.162948876619339, 0.11674285680055618, -0.13374760746955872], [-0.082892507314682, -0.03304637223482132, 0.11775672435760498, 0.004988804459571838,